max_feature_idx=10
sigmoid=1

Tree=0
num_leaves=63
split_feature=0 7 5 7 0 8 0 7 7 6 4 5 0 5 0 8 5 6 6 0 8 0 0 0 0 8 10 8 5 6 6 4 8 8 0 4 8 6 0 3 8 10 3 8 0 4 0 5 5 6 5 6 0 4 6 0 7 8 7 7 4 8
split_gain=2.47523e+07 3.95682e+06 364294 348381 166398 149638 113421 113017 107530 65072.6 62962.9 52318.3 40873.5 40398 34280.8 32551.1 50349.2 55903 27449.7 27365 27103.3 111703 32146.9 19756.6 18515.5 37372.1 20436.3 17659.2 17268.7 23137.2 16082 14601.1 11863.3 11717.4 21756.6 14148 11372.7 12369.4 10926.2 11242.3 11263.6 10180.2 9793.07 14126.9 9326.23 8624.35 8571.31 8190.53 8023.79 35616.3 22429.7 15046.8 10258.9 7752.54 7600.98 7389.42 7704.52 6846.68 6744.15 53112.6 6708.18 6629.18
threshold=5371 1.5 0.00254669 458.5 3846 3739 6736.5 1.5 1.5 9.1375 1.5 87.0166 2108.5 0.762308 14739 1909.5 0.00254669 248480 248480 8664.5 11468.5 11508 33209 8664.5 24881 11468.5 8.6904 479 0.00254669 248480 248480 1.5 3498.5 3085.5 4710 1.5 5319 13.4174 16992 0.5 2585.5 97.5602 0.5 1005 6320 1.5 4449 99782.8 11.9595 248480 99782.8 13.4174 15493 0.5 2393.28 2560.5 1.5 3498.5 3.5 2.5 1.5 62.5
left_child=2 -2 8 6 55 44 9 -6 -1 31 14 33 45 -11 -7 23 -17 19 32 -18 21 36 -22 28 25 38 -27 46 -8 -30 -14 61 42 34 35 41 37 -12 -21 -40 -41 -9 43 53 60 -10 -13 -31 -25 51 -51 -50 -53 54 -15 -4 -57 -42 59 -54 -5 -3
right_child=1 3 4 5 7 10 15 11 12 13 20 27 30 18 -16 16 17 -19 -20 24 22 -23 -24 48 -26 26 -28 -29 29 47 -32 -33 -34 -35 -36 -37 -38 -39 39 40 57 -43 -44 -45 -46 -47 -48 -49 49 50 -52 52 58 -55 -56 56 -58 -59 -60 -61 -62 -63
leaf_parent=8 1 61 55 60 7 14 28 41 45 13 37 46 30 54 14 16 19 17 18 38 22 21 22 48 24 26 26 27 29 47 30 31 32 33 34 35 36 37 39 40 57 41 42 43 44 45 46 47 51 50 50 52 59 53 54 56 56 57 58 59 60 61
leaf_value=-0.1 -0.1 0.00715955 -0.0995188 -0.0829787 -0.1 -0.0850305 0.0991199 0.0453837 -0.0922609 0.0984066 0.1 -0.00756655 -0.0527501 -0.011606 0.1 0.0989571 -0.0243267 -0.0955584 -0.0836765 0.0777745 -0.1 0.088522 0.1 0.0993377 0.0980899 0.1 -0.0994408 -0.0584696 0.0792553 -0.1 0.0917765 0.0307976 -0.1 -0.0908573 0.00450069 -0.0207186 -0.0898607 -0.0657354 0.0675415 0.0896234 -0.0723756 -0.0892518 0.0703683 -0.0642042 0.0901071 0.00506116 0.0305811 0.095 -0.0963583 -0.1 0.0971466 0.0965999 0.0844974 0.0568121 0.0599557 -0.1 -0.0866695 0.0287084 0.0916789 -0.0829322 0.1 -0.0771204


Tree=1
num_leaves=63
split_feature=0 7 5 7 0 4 0 7 7 9 6 5 2 0 5 0 5 6 5 0 6 6 6 0 7 9 9 6 9 9 2 2 4 7 1 1 0 2 0 0 2 5 7 7 9 6 1 0 0 5 6 4 6 2 7 4 7 7 4 9 6 4
split_gain=2.02497e+07 3.23646e+06 298384 285056 138134 105554 94108.5 93282 87895.7 53877.5 53207.5 42688.8 42449.4 34378.1 33992.1 27003.7 22595.5 111390 32069.5 25394.5 22251 21042.8 33503 49652.2 20197.4 18218.4 18199.5 17748.4 13814 12350.6 11592.6 18630.6 9885.09 9810.95 9642.97 9087.26 8992.72 11565.4 8821.01 8612.99 8605.04 8563.82 8403.14 40582.6 7670.91 7481.18 7453.33 6917.48 6370.71 6154.75 5974.2 5734.31 7263.35 6108.21 5643.6 6512.69 5631.69 49510 5491.84 5898.8 5480.54 5332.52
threshold=5371 1.5 0.00254669 458.5 3846 1.5 6736.5 1.5 1.5 14.5138 8.12685 87.0166 1.5 1169.5 0.762308 9372 0.211138 248480 99782.8 8664.5 248480 2.71081 181.568 11589 2998.5 33.4932 3.44406 248480 88.3563 3.026 3.5 2.5 1.5 864.5 3.5 4413 4710 1219 10457 15493 180.5 4.63233 3.5 2.5 19.2159 4.04317 3.5 17418 3045.5 0.335897 2.22748 0.5 3006.77 346.5 1.5 1.5 3.5 2.5 0.5 14.5138 7.06775 0.5
left_child=2 -2 8 6 48 15 10 -6 -1 21 32 36 -8 -10 -12 44 -14 19 -19 28 42 -7 23 26 38 29 -23 -15 58 -21 31 -31 49 -25 -13 47 61 46 -24 -27 -36 -34 43 -16 -5 -32 -38 -11 -4 -3 -30 52 -44 -53 -50 -56 57 -41 59 -18 -48 -9
right_child=1 3 4 5 7 9 12 11 13 35 14 34 16 27 20 -17 17 18 -20 25 -22 22 24 33 -26 39 -28 -29 50 30 45 -33 41 -35 40 -37 37 -39 -40 56 -42 -43 51 -45 -46 -47 60 -49 54 -51 -52 53 -54 -55 55 -57 -58 -59 -60 -61 -62 -63
leaf_parent=8 1 49 48 44 7 21 12 61 13 47 14 34 16 27 43 15 59 18 18 29 20 26 38 33 24 39 26 27 50 31 45 31 41 33 40 35 46 37 38 57 40 41 52 43 44 45 60 47 54 49 50 53 52 53 55 55 56 57 58 59 60 61
leaf_value=-0.0909365 -0.0909365 0.0329255 -0.0902865 -0.0719336 -0.0909365 -0.0914203 -0.0970007 -0.078886 -0.0487623 0.0771694 0.0894583 -0.045393 0.0906986 -0.0555333 0.050897 0.0838531 0.0830145 -0.0924451 0.0882244 0.0911954 -0.075857 0.0787528 -0.0927651 -0.0279294 -0.0912732 0.0879378 -0.0814301 0.0807521 0.0163334 0.0502669 0.00852838 -0.0996348 0.0653037 0.0865985 0.0147753 -0.0938402 -0.0988693 -0.0668723 0.0557947 0.0777331 -0.0637594 -0.059524 0.00747823 -0.094362 0.0769103 0.0679357 -0.0334458 -0.0724512 -0.0909365 -0.0667029 0.0741439 0.0645038 0.0668076 -0.0747395 -0.0857959 -0.0647022 0.083716 -0.0771614 0.0491484 -0.0256502 0.0343118 -0.0467448


Tree=2
num_leaves=63
split_feature=0 7 7 0 7 0 4 6 3 9 2 0 0 4 0 9 0 1 4 9 0 6 6 1 9 6 1 2 9 9 3 0 0 3 1 9 9 0 6 1 6 0 7 6 0 9 0 0 9 0 0 0 9 0 1 0 6 7 9 7 4 9
split_gain=1.68482e+07 2.74287e+06 268344 174514 108351 93177.3 83121.5 71501.4 39551.6 38849.8 36568.3 36109.9 23150.9 22007.6 18219.5 37570.3 18814 17509 17345 25927 15726.9 13915.5 13144.9 12968.7 12053.6 10966 10165.3 27005.9 9783.65 10105.3 11757.7 14282.6 18252.1 9670.11 8208.07 8164.04 7741.7 12795.1 7521.46 7493.87 6857.64 6058.04 6865.2 10148 5951.71 5848.01 5791.56 6242.91 5601.88 11443.3 15057.6 6545.57 9078.61 8376.44 5594.53 5345.97 5305.48 5130.96 5015.82 7609.65 4925.19 4744.32
threshold=5133.5 1.5 458.5 3572.5 1.5 6422.5 1.5 2781.15 0.5 14.5138 1.5 9372 8664.5 0.5 11589 3.94639 33209 11125 0.5 50.3344 16992 248480 47081.4 3705 33.4932 17.2263 3.5 2.5 3.94639 7.06165 0.5 34795 17418 0.5 3.5 88.3563 3.026 11277 159019 2274.5 4.75141 2560.5 1.5 248480 15493 68.0352 6320 17418 23.1736 16187 19056 11800 10.0585 10762 2830 6320 5.23569 300.5 5.25364 4304.5 1.5 6.36978
left_child=3 -2 5 41 -5 8 11 18 13 14 -7 39 22 25 36 16 -16 20 -6 58 -17 -9 26 46 28 -3 27 -12 57 30 61 32 -32 -23 -21 -28 37 -8 -10 55 -36 -1 -43 -44 -26 -15 -11 -48 51 -50 -51 52 53 -31 -22 -4 -37 -14 59 -20 -42 -30
right_child=1 2 6 4 7 10 9 21 38 23 12 -13 24 45 15 17 -18 -19 19 34 54 33 -24 -25 44 -27 35 -29 29 48 31 -33 -34 -35 40 56 -38 -39 -40 -41 60 42 43 -45 -46 -47 47 -49 49 50 -52 -53 -54 -55 -56 -57 -58 -59 -60 -61 -62 -63
leaf_parent=41 1 25 55 4 18 10 37 21 38 46 27 11 57 45 16 20 16 17 59 34 54 33 22 23 44 25 35 27 61 53 32 31 32 33 40 56 36 37 38 39 60 42 43 43 44 45 47 47 49 50 50 51 52 53 54 55 56 57 58 59 60 61
leaf_value=-0.0834721 -0.0841291 -0.0574132 -0.0455534 -0.0841291 -0.0684438 -0.088912 0.0958883 -0.000535083 0.0505692 -0.0397471 0.0688557 0.0772076 0.0830439 -0.017076 -0.0715873 0.0860098 0.0849924 -0.0841061 -0.0569899 -0.088421 -0.0900401 -0.00399283 0.0780882 -0.0864022 0.0820246 0.00591334 0.0381637 -0.111849 0.0815392 0.0831775 0.0685988 0.0846087 -0.0794838 0.0592674 -0.0528366 0.0369713 -0.0766686 -0.0866356 0.078758 -0.0876069 -0.0288723 -0.0841517 -0.0739458 -0.0338533 0.0765425 0.0401184 0.0773015 -0.0646653 0.0735485 -0.0313774 0.0653556 0.0811768 0.0647169 -0.0724079 0.0874643 0.0900888 0.0680424 -0.051702 -0.0774296 0.118544 0.0193227 0.00471281


Tree=3
num_leaves=63
split_feature=7 8 5 5 7 8 1 5 4 7 2 8 9 1 7 4 5 10 5 8 7 8 2 7 7 10 7 7 7 7 1 7 7 8 7 9 10 7 2 4 10 7 8 9 4 5 1 1 10 9 8 10 9 9 10 7 7 1 1 9 1 5
split_gain=6.97005e+06 2.0136e+06 920085 599485 433461 268489 139599 235876 121950 115631 98159.4 92581.7 94628.6 79301.6 63702.4 49560.6 98297.6 77791.8 47068.1 42645.5 41311.6 40344.9 37570.4 35881.4 145226 35096.9 34231.7 91537.1 32020 43661.3 30694.3 30238.8 51178.4 29587.7 28555 23762.9 22886.6 21870 20130 19503.2 17943.6 17686 14879.3 30499.2 13885.1 11990.3 11954.6 11886.7 11299.5 11255.2 13870.3 39566.3 24832.7 12319.6 15671.2 11117.4 24099 11080.1 10946.9 10889.4 10695.3 10167.2
threshold=1.5 17.5 0.335897 0.211138 293 68.5 3.5 3832.19 1.5 16.5 2.5 7.5 0.0034965 3.5 68.5 0.5 126.555 1180.49 3832.19 165.5 2.5 202.5 2.5 2.5 3.5 1269.04 4.5 5.5 3.5 4.5 3.5 6.5 7.5 3.5 9.5 577.373 988.764 2.5 1.5 1.5 1603.79 204.5 6205 7.85077 1.5 3968.13 2.5 19.5 36.9172 33.4932 337.5 760.96 349.039 3.94639 16.8671 5.5 6.5 2.5 17.5 35.954 21.5 8.68297
left_child=-1 3 57 46 5 9 7 -7 42 13 38 12 -5 18 15 16 17 34 -4 25 30 36 -20 -15 -25 35 -26 -28 -22 -30 45 -29 -33 -14 -8 -17 -16 58 -9 40 -11 -23 43 -6 -43 -13 -2 -34 -45 53 51 52 -51 -21 -55 -31 -57 -3 -35 -39 -19 -10
right_child=1 2 4 11 8 6 14 10 61 39 -12 20 33 23 21 19 -18 60 22 49 28 41 -24 24 26 -27 27 31 29 55 -32 32 47 37 -36 -37 -38 59 -40 -41 -42 44 -44 48 -46 -47 -48 -49 -50 50 -52 -53 -54 54 -56 56 -58 -59 -60 -61 -62 -63
leaf_parent=0 46 57 18 12 43 7 34 38 61 40 10 45 33 23 36 35 16 60 22 53 28 41 22 24 26 25 27 31 29 55 30 32 47 58 34 35 36 59 38 39 40 44 42 48 44 45 46 47 48 52 50 51 52 54 54 56 56 57 58 59 60 61
leaf_value=-0.0789214 0.0753195 0.0786475 -0.0755241 0.0395312 -0.0503655 -0.0719375 -0.0298767 -0.0830365 -0.0359953 -0.0363451 -0.0902031 -0.0764428 -0.0791751 0.0431952 -0.0351186 0.0270797 0.0603054 0.021885 0.0281712 0.06984 -0.0801233 0.0489273 -0.0828563 -0.0830282 0.0442489 0.0492543 -0.0822281 0.0465219 0.00440703 -0.0799837 0.0116273 -0.0813742 0.00616995 -0.0429674 0.0235799 -0.0360627 0.0182481 -0.0314772 0.0577416 -0.0498858 0.00548592 0.0365244 0.0798202 -0.0600434 -0.022909 -0.0165939 0.0100779 0.0321105 0.0341467 0.0328726 0.0669062 0.063677 -0.0611714 -0.0438391 0.038189 -0.00367584 -0.0504142 0.0566815 0.00163297 -0.0677039 0.0536492 -0.0584732


Tree=4
num_leaves=63
split_feature=0 7 7 0 8 0 7 0 8 8 2 4 3 2 4 8 0 0 8 0 10 7 0 10 10 8 0 8 8 0 9 10 0 2 2 4 0 2 2 2 2 8 10 10 3 0 2 2 4 7 2 0 10 9 8 10 9 8 2 10 3 10
split_gain=1.26751e+07 1.99182e+06 191359 139573 84969.7 82761.3 77509 39108 56152.9 37441.8 33704.7 32882.3 32324.4 26399.5 22132.7 19850.1 20699 19432.3 17420.9 13028.8 12485.1 11099.7 10877.9 10261 12462.2 9712.18 9652.35 30524.5 9429.23 8636.19 8221.8 9075.67 7758.47 8321.9 7556.79 7232.79 7103.33 6614.67 8140.46 6382.76 11447.4 6332.5 6100.03 8002.25 6930.52 5989.75 5930.65 27706.7 5927.03 10993.6 11006 5911.15 5819.31 22547.1 6536.1 5341.03 5159.92 5151.58 5412.18 8150.19 4971.9 10138.1
threshold=5133.5 1.5 458.5 3846 3739 6736.5 1.5 11508 11468.5 271.5 26002 1.5 0.5 1.5 0.5 1688 9222 33209 78.5 8664.5 344.147 21.5 6320 252.715 480.137 3498.5 24881 12963 6205 3045.5 14.5138 268.877 16992 2.5 2.5 0.5 6736.5 2.5 3.5 2.5 3.5 140.5 201.307 137.892 0.5 15493 2.5 3.5 1.5 1.5 2.5 4449 26.4706 6.36978 4487 1232.6 3.94639 5833 4918.5 368.941 0.5 268.877
left_child=3 -2 5 29 22 12 -5 30 57 11 17 34 14 -7 18 19 23 -10 -3 46 41 -20 35 28 -25 39 27 32 -17 -1 -6 36 52 -34 -8 -4 -32 -13 -39 -14 -41 -16 43 -35 -44 -21 -15 -48 -31 -50 -51 -40 53 -18 -55 60 -54 58 59 -9 -11 -62
right_child=1 2 4 6 7 13 9 8 10 55 -12 37 25 15 20 16 26 -19 21 45 -22 -23 -24 24 -26 -27 -28 -29 -30 48 31 -33 33 42 -36 -37 -38 38 51 40 -42 -43 44 -45 -46 -47 47 -49 49 50 -52 -53 56 54 -56 -57 -58 -59 -60 -61 61 -63
leaf_parent=29 1 18 35 6 30 13 34 59 17 60 10 37 39 46 41 28 53 17 21 45 20 21 22 24 24 25 26 27 28 48 36 31 33 43 34 35 36 38 51 40 40 41 44 43 44 45 47 47 49 50 50 51 56 54 54 55 56 57 58 59 61 61
leaf_value=-0.0748593 -0.0746321 0.0337183 -0.0659939 -0.0746321 -0.0711055 -0.0792749 0.0231405 -0.0811124 -0.0776004 -0.0595172 0.0752863 0.056824 0.0699001 0.0709948 0.0578131 0.0467091 0.0760996 0.0824492 -0.0621146 0.0737244 0.0419633 0.0193501 0.0712686 -0.0866013 0.0777735 -0.0955922 0.0749718 -0.0820769 -0.100764 -0.0732707 -0.0779665 -0.0884776 0.0627531 0.0157453 -0.0377023 0.0996177 0.086802 -0.0854519 0.00544612 -0.0982668 0.0498561 -0.050444 0.0691515 -0.0886739 -0.0659778 0.0679999 -0.100134 0.0599498 -0.0746311 0.000960135 -0.053141 0.0449988 -0.100576 0.0472996 -0.100818 0.050927 0.0700674 0.0825691 0.0809917 0.0802562 -0.0853965 0.0138655


Tree=5
num_leaves=63
split_feature=7 8 5 5 7 6 8 6 10 5 4 8 9 8 9 7 7 7 7 7 6 4 7 8 7 7 8 5 10 9 1 7 7 1 1 6 5 6 6 5 8 10 9 9 4 6 10 7 7 1 8 6 1 7 7 8 9 9 6 8 7 7
split_gain=5.08318e+06 1.42632e+06 699016 467149 312029 242828 168211 133768 98348.4 96465.4 86169.4 85234.6 70654.9 37875.2 34142.6 45395.8 32621.7 31484 31126.9 36510.8 30069.5 27976 26722.5 24936.9 23476.1 241577 22491.7 21513 17923.5 17587.3 17065.2 17029.1 16918.6 15053.3 19499.7 14900.4 19238 13061.9 12499 15122.3 12471.2 29262.5 15974.2 12360.2 12508.6 22030.3 12919.6 12019.5 47924.3 11408.5 11389.5 23270.5 12770.8 11214.3 21471.1 11108.1 21909.6 10717.7 10130 9641.31 9603.04 18009.5
threshold=1.5 19.5 0.335897 0.335897 293 248480 102.5 8.12685 1833.39 5.00309 1.5 7.5 0.0034965 40.5 943.36 18.5 2.5 102.5 3.5 4.5 248480 0.5 12.5 3.5 3.5 2.5 255.5 99782.8 1269.04 3.94639 17.5 36.5 2.5 9.5 8.5 4.75141 3.42905 1.87526 4.04317 3.00993 279.5 1017.87 462.26 35.954 0.5 1020.61 773.088 2.5 3.5 17.5 6724.5 181.568 3007 5.5 6.5 6205 7.85077 113.822 1.16028 6.5 4.5 5.5
left_child=-1 3 58 37 5 6 8 9 14 21 55 12 -5 22 15 -4 20 24 -18 -20 49 28 30 -14 25 -9 57 -7 -8 -27 47 33 59 34 35 36 -15 -2 -12 -40 41 42 -26 -42 45 46 -45 -10 -49 -13 -41 -52 -53 -21 -55 56 -6 -19 -3 -25 -50 -62
right_child=1 2 4 11 10 27 7 17 13 -11 38 16 23 31 -16 -17 18 26 19 53 -22 -23 -24 32 40 29 -28 -29 -30 -31 -32 -33 -34 -35 -36 -37 -38 -39 39 50 43 -43 -44 44 -46 -47 -48 48 60 -51 51 52 -54 54 -56 -57 -58 -59 -60 -61 61 -63
leaf_parent=0 37 58 15 12 56 27 28 25 47 9 38 49 23 36 14 15 18 57 19 53 20 21 22 59 42 29 26 27 28 29 30 31 32 33 34 35 36 37 39 50 43 41 42 46 44 45 46 48 60 49 51 52 52 54 54 55 56 57 58 59 61 61
leaf_value=-0.0712674 0.0120784 0.0485521 0.0132776 0.0353108 -0.0441129 -0.078331 -0.0180218 0.0514152 0.0260967 -0.0685207 -0.0725191 -0.00247086 -0.0715453 0.0439624 -0.0594465 -0.0298045 -0.0727366 -0.0342648 0.00619571 -0.0726177 -0.0724119 0.0531245 -0.0193186 -0.0242804 0.029494 0.0515495 0.0387522 0.0504921 0.0382623 -0.081069 0.0366506 -0.00106723 -0.0565045 0.0442653 -0.080977 0.0322775 -0.0828766 0.0681167 0.0351911 -0.0477383 0.0364524 0.0523534 -0.0411741 -0.00361677 0.0609543 0.0632639 0.0591778 -0.0743562 0.0312364 0.0354896 0.0330506 0.0250062 -0.0733195 0.000123997 -0.0420194 0.071752 0.0249823 0.0134836 0.0710881 -0.0746763 -0.0741122 0.0106051


Tree=6
num_leaves=63
split_feature=7 5 8 7 6 8 6 10 8 5 9 8 8 9 7 7 6 7 7 2 9 6 6 2 2 5 2 7 7 2 5 10 9 10 9 6 8 10 2 7 7 7 2 2 6 7 9 7 7 8 5 10 9 10 10 9 8 8 8 8 2 10
split_gain=4.37551e+06 1.20927e+06 1.01972e+06 266848 203434 136887 110706 90621.2 90341.4 77259.3 55983.3 34398.6 31473.3 28792.2 34689.3 27665.8 25567.3 25430.4 21857.6 21580.5 20410.6 19434.9 19190.4 39020 28911.5 18433.8 17123.1 18000.1 35070.3 16821.1 16366 15541.1 38577.8 13499.8 34480.1 13410.1 12417.9 32723.1 11557.9 11128.6 10546.5 21548.2 10434.2 10271.5 18664.2 10204.4 10186.8 10113.6 9975.07 9686.85 9417.59 9272.7 8933.26 19404.7 8533.97 31252.1 8461.4 9205.2 8697.06 15067.4 8396.76 8591.01
threshold=1.5 0.335897 21.5 236.5 248480 116.5 7.06775 1603.79 9.5 5.00309 0.0034965 3.5 48.5 816.759 20.5 8.5 3.44754 20.5 2.5 1.5 47.0708 1.16028 3256.48 3.5 2.5 99782.8 3.5 2.5 3.5 26002 3.00993 3475.16 1696.76 2285.12 1086.96 248480 279.5 815.248 3.5 108.5 4.5 5.5 3.5 2.5 248480 3.5 387.954 4.5 48.5 8.5 1890.99 208.113 2394.76 5043.2 326.906 150.543 7.5 6.5 5.5 4.5 4.5 1581.55
left_child=-1 21 8 4 5 7 9 13 10 38 -3 -12 17 14 -4 26 -5 31 35 -8 29 42 23 24 -21 -6 43 -28 -29 30 -18 32 -9 34 -14 49 37 46 -7 50 -30 -42 -2 44 -10 -20 -24 -47 -35 56 -25 -22 -33 -54 55 -38 57 58 59 -13 -40 -62
right_child=1 2 3 16 25 6 19 12 15 -11 11 18 33 -15 -16 -17 20 -19 45 22 51 -23 36 39 -26 -27 27 28 40 -31 -32 52 -34 48 -36 -37 54 -39 60 -41 41 -43 -44 -45 -46 47 -48 -49 -50 -51 -52 -53 53 -55 -56 -57 -58 -59 -60 -61 61 -63
leaf_parent=0 42 10 14 16 25 38 19 32 44 9 11 59 34 13 14 15 30 17 45 24 51 21 46 50 24 25 27 28 40 29 30 52 32 48 34 35 55 37 60 39 41 41 42 43 44 47 46 47 48 49 50 51 53 53 54 55 56 57 58 59 61 61
leaf_value=-0.0684422 -0.0718598 0.0318913 0.0119139 -0.0657318 -0.0744378 -0.0576981 -0.0771309 0.0191524 0.016782 -0.0726327 -0.0686877 -0.0100774 0.0295394 -0.0576888 -0.0276159 -0.0395792 0.0310163 -0.0253177 -0.0697942 0.0493997 -0.050167 0.0678224 0.0162893 0.0416432 -0.0810766 0.047257 0.0158083 -0.0704447 0.0126035 0.0688438 -0.0300826 0.0335104 -0.0420645 0.0418863 -0.0458665 -0.0709713 0.0473986 0.0491121 0.055858 0.0162823 -0.0700776 -0.00306213 0.0428162 -0.0720164 -0.0692375 -0.0325653 -0.0491681 -0.0549049 0.000922606 -0.0773399 -0.057489 0.015327 -0.0317134 0.0274776 0.0583761 -0.110395 0.0147454 -0.0714353 0.00865333 -0.0731091 0.00651488 0.0526449


Tree=7
num_leaves=63
split_feature=0 2 0 5 8 8 0 5 5 4 0 8 0 0 2 4 1 5 8 4 8 0 1 8 0 0 5 1 2 10 0 10 8 2 8 5 5 1 2 5 5 1 5 2 5 10 0 10 0 1 10 1 8 0 1 10 1 9 0 0 9 1
split_gain=8.98059e+06 1.03909e+06 143246 118357 71240.2 65180.8 58273.2 48934.5 40990.9 28830 28435.1 34313.2 33821 28250.1 26565.4 25757.1 24887.8 23539.3 19385.7 18272.4 21570.4 16623.5 16347.9 14469.7 14066.8 14569.2 11331.3 16209 19046.6 10553 9942.88 8961.37 12545.5 8816.43 8645.94 8286.58 8218.9 7557.82 24658.5 10579.9 7466.13 13690.5 15340.9 7501.49 7191.01 7150.62 6909.42 6113.65 5777.26 5609.28 5553.17 15290.3 5454.41 5142.37 4883.9 4843.32 4837.68 4705.6 4640.35 4602.81 4442.42 4423.05
threshold=5133.5 1.5 7111 0.00254669 2489 3739 3846 0.00254669 0.00254669 1.5 33209 11468.5 24881 11474 21.5 0.5 3.5 362.385 5833 0.5 479 821.5 3.5 118.5 8664.5 15493 14.1602 7.5 6.5 4.93689 3572.5 252.715 2878.5 2.5 3739 3.00993 36.4831 3.5 2.5 1575.73 0.00254669 3.5 3097.52 2.5 2689.79 97.5602 14119 16.8671 6422.5 5752 8.6904 26002 2762 20078 15.5 73.7003 9.5 14.5138 10496 19337 25.3626 2.5
left_child=3 -2 5 9 24 8 -5 -6 -3 30 11 13 29 18 34 17 -8 23 31 45 56 -11 33 54 40 -26 -27 28 37 -13 -1 32 -9 44 46 49 -33 38 39 -28 -4 42 -42 -44 -17 55 -15 58 -24 57 51 -14 -48 -36 -10 -18 -21 -7 -20 -54 -16 -32
right_child=1 2 4 6 7 35 16 10 15 21 -12 12 50 14 60 22 19 -19 47 20 -22 -23 48 -25 25 26 27 -29 -30 -31 61 36 -34 -35 53 -37 -38 -39 -40 -41 41 -43 43 -45 -46 -47 52 -49 -50 -51 -52 -53 59 -55 -56 -57 -58 -59 -60 -61 -62 -63
leaf_parent=30 1 8 40 6 7 57 16 32 54 21 10 29 51 46 60 44 55 17 58 56 20 21 48 23 25 26 39 27 28 29 61 36 32 33 53 35 36 37 38 39 42 41 43 43 44 45 52 47 48 49 50 51 59 53 54 55 56 57 58 59 60 61
leaf_value=-0.0636801 -0.0661744 0.0633274 0.0644732 -0.0676232 0.0654464 -0.0726379 -0.0637047 -0.110465 -0.0238328 -0.050631 0.0704141 0.0705364 -0.0748625 0.0581578 0.0680423 -0.0555302 -0.0305423 0.0373863 -0.0707293 -0.00932791 -0.0529992 0.0581762 0.0279862 -0.0523135 0.0655971 0.065346 -0.04939 0.058161 -0.120225 -0.0727817 0.0368418 0.0641932 0.075423 -0.0830692 0.0407454 -0.0740644 -0.0689648 0.0458346 -0.0870168 0.0490234 -0.0659769 0.0510224 0.0478178 -0.084232 0.0311855 -0.0561422 5.57646e-07 -0.0721924 0.0489621 0.0957984 0.0696968 0.06642 -0.0985763 -0.103507 0.0313258 0.106183 0.020745 0.0721677 0.0694653 -0.00300227 0.0026913 -0.0580909


Tree=8
num_leaves=63
split_feature=0 1 0 5 8 0 8 5 5 6 1 6 1 0 8 0 1 6 0 6 8 0 0 5 6 1 1 0 3 10 5 6 8 9 10 9 5 5 10 8 0 0 0 5 5 9 6 9 10 3 9 3 9 10 8 9 0 6 0 0 8 1
split_gain=7.76938e+06 875884 132432 104407 66025.7 56923 56054.6 45833.6 37768.5 29305.4 24392.8 23301.8 23128.8 19871.8 39244 22813.8 21757.3 17417.3 16500.8 16424.2 14803.6 14328.4 14265.6 11544.7 17019.1 11343.9 13514.1 11285.7 10202 8973.02 7895.49 15373.3 7624.42 7489.51 11252.6 8328 7219.58 6740.34 6767.58 7399.09 6538.83 6169.39 23549.2 6074.45 6045.32 5996.27 5352.63 5195 4906.62 5706.74 4781.99 5067.92 4757.45 4703.88 4572.05 4569.51 5768.9 4245.86 4011.28 3972.14 3943.26 3900.88
threshold=5133.5 1.5 7111 0.00254669 2489 3846 3739 0.00254669 0.00254669 2.71081 2.5 5.23569 3.5 24881 11468.5 11474 17.5 104.39 2560.5 248480 6724.5 8664.5 15493 14.1602 248480 9.5 8.5 6320 0.5 4.93689 0.00254669 248480 214.5 3.44406 44.008 7.06165 3.00993 31.368 252.715 2878.5 4449 20454 24881 0.335897 4.15587 1.8899 47.1637 1.8899 387.342 0.5 6.36978 0.5 25.3626 480.137 106.5 23.1736 16187 93.1722 520.5 11345 1909.5 3.5
left_child=3 -2 6 10 21 -5 8 -6 -3 43 18 44 -7 14 15 20 33 -14 58 27 37 30 -23 -24 25 26 41 28 53 -16 -4 60 40 -17 -35 -36 46 -11 39 -39 -19 48 -43 -9 -10 -41 -8 -22 49 -25 51 -34 -18 54 -13 -37 -57 -54 -1 -40 61 -32
right_child=1 2 4 5 7 12 36 9 11 13 -12 19 17 -15 29 16 52 32 -20 -21 47 22 23 24 -26 -27 -28 -29 -30 -31 31 -33 50 34 35 55 -38 38 59 45 -42 42 -44 -45 -46 -47 -48 -49 -50 -51 -52 -53 57 -55 -56 56 -58 -59 -60 -61 -62 -63
leaf_parent=58 1 8 30 5 7 12 46 43 44 37 10 54 17 13 29 33 52 40 18 19 47 22 23 49 24 25 26 27 28 29 61 31 51 34 35 55 36 39 59 45 40 42 42 43 44 45 46 47 48 49 50 51 57 53 54 56 56 57 58 59 60 61
leaf_value=-0.0617012 -0.0640555 0.0608559 0.0622237 -0.0651253 0.0633226 -0.0610907 -0.0397812 0.0375013 -0.0184104 0.060684 -0.0635646 0.0448546 -0.0448453 0.0572759 0.0678182 0.0690968 0.0646729 -0.0118563 0.051521 -0.0616627 0.0669016 0.0629298 0.0629466 -0.0082168 -0.0577338 0.056564 -0.110666 0.0392104 0.0336684 -0.0714732 0.0205833 -0.0558409 0.138945 -0.0966982 -0.0939224 0.0694161 -0.0708989 -0.119917 -0.078493 -0.0679949 0.0267094 -0.0309566 0.0637422 -0.0614679 -0.0838317 0.0734146 0.0826612 -0.0688617 0.0511907 0.0444224 -0.035863 -0.0885176 -0.101497 0.00866881 -0.0376969 0.052818 -0.0371371 0.0336323 0.000684105 0.0761118 -0.0443574 0.0482363


Tree=9
num_leaves=63
split_feature=7 5 10 6 10 7 4 7 7 7 7 7 7 4 10 6 5 7 7 7 7 7 7 3 5 1 5 6 2 2 2 2 6 10 7 7 6 7 7 2 10 1 1 5 6 1 6 6 5 3 4 10 10 7 5 10 6 1 2 2 6 5
split_gain=2.9231e+06 838145 199483 138235 74441.1 71233.3 35216.4 32729.8 439446 37575.4 243449 27506 138474 24790.5 23370.3 17135.2 28196.2 17385.9 75704.1 16815.2 52750.1 17326.4 40679.1 14613.5 14069.7 13651.6 11470.9 10876 10457.9 85482.8 10671.6 70833 8884.29 9085.94 7749.26 28143.1 7347.38 7251.22 32428.3 6873.25 6837.18 6608.87 8245.01 6597.17 6881.13 11074.3 8587.07 5444.03 18868.3 5079.26 6614.03 8418.09 8219.11 7404.61 7290.39 5485.08 5379.81 4999.44 4879.03 47739.1 4616.74 7122.84
threshold=1.5 0.00254669 89.6987 248480 5043.2 458.5 1.5 3.5 2.5 4.5 5.5 6.5 7.5 1.5 2.15007 2.71081 2.50808 8.5 9.5 10.5 11.5 12.5 13.5 0.5 99782.8 7018.5 21.6344 181.568 2.5 3.5 4.5 5.5 248480 10.9723 2.5 3.5 2.71081 14.5 15.5 2.5 10102 2.5 3.5 8.68297 197.325 6278.5 167.017 8.12685 5.00309 0.5 1.5 344.147 1561.13 212.5 52.6733 1318.72 2393.28 8340 6.5 7.5 7.06775 4.63233
left_child=-1 41 14 4 5 7 34 8 28 -9 -11 47 -13 -7 -3 16 -14 60 -19 -20 -21 -22 -23 25 -5 -16 36 -27 -4 -30 -31 -32 33 -25 -6 -36 -8 -24 -39 -10 -28 -2 -43 44 45 46 -15 48 -12 50 51 -40 53 -52 -53 -51 -56 -29 -33 -60 61 -17
right_child=1 2 3 24 6 13 26 9 39 10 11 12 15 43 23 17 -18 18 19 20 21 22 37 32 -26 27 40 57 29 30 31 58 -34 -35 35 -37 -38 38 49 -41 -42 42 -44 -45 -46 -47 -48 -49 -50 55 52 54 -54 -55 56 -57 -58 -59 59 -61 -62 -63
leaf_parent=0 41 14 28 24 34 13 36 9 39 10 48 12 16 46 25 61 16 18 19 20 21 22 37 33 24 27 40 57 29 30 31 58 32 33 35 35 36 38 51 39 40 42 42 43 44 45 46 47 48 55 53 54 52 53 56 55 56 57 59 59 60 61
leaf_value=-0.0625574 0.0615771 -0.0444822 0.0419688 -0.0667432 0.0282565 0.0170369 -0.0393795 0.0345666 -0.0053668 -0.0751751 0.0400853 -0.0748318 0.028278 -0.0237657 -0.0310633 0.0402892 -0.0716715 -0.0747459 0.0423496 -0.0755365 0.0440084 -0.0750887 0.0393126 0.024236 0.0376748 0.066461 -0.0131156 0.074819 -0.078108 0.0436449 -0.0909341 0.0424085 -0.0632424 -0.0102684 -0.0653948 0.0150525 0.0383313 -0.0749345 -0.00361035 -0.073035 -0.0302814 -0.0797104 0.0416331 -0.0425744 -0.064577 0.0705991 0.103912 0.0388499 -0.0629685 0.0344434 0.0214832 0.0418541 -0.00860798 -0.011602 0.00516116 0.0167672 0.0272033 -0.0644046 -0.0876987 0.0311448 0.0404153 -0.0642789


Tree=10
num_leaves=63
split_feature=7 5 8 7 6 8 6 8 10 5 9 4 8 7 9 7 4 7 7 7 7 7 7 7 6 7 7 7 10 9 5 8 9 8 10 10 7 6 6 9 9 10 5 6 8 10 9 8 10 9 9 9 4 4 5 9 7 8 6 5 4 5
split_gain=2.55367e+06 756176 560593 145588 113869 68592.8 69831.9 65103.4 57685.7 46971.6 43264.3 35093.3 27778 21980.5 21728.5 22387.2 20387.5 20247.7 18404.3 99255.2 22286.3 46024 19800.8 26501.1 16061.1 16057.1 132183 14987.2 12784.3 18189 12639 11303.9 10856.7 10473.3 10825.7 10414.8 9625.9 8576.4 8407.58 8353.56 8175.41 10218.9 7835.67 7375 7362.48 7309.62 9567.62 7308.79 20404.3 11203.2 10316 8625.87 7307.53 7301.12 7099.24 8370.07 6906.05 6834.09 14577.5 7907.78 6483.02 11725.7
threshold=1.5 0.335897 23.5 392.5 248480 120.5 8.12685 9.5 1736.4 5.8664 0.0034965 1.5 3.5 112.5 863.364 22.5 0.5 10.5 2.5 3.5 4.5 5.5 6.5 7.5 1.52605 3.5 2.5 2.5 5565.48 3046.81 99782.8 56.5 3.94639 395.5 532.164 1446.63 22.5 248480 4.04317 43.9112 4301.78 8705.24 3.00993 2.71081 22.5 3525.66 1971.35 395.5 598.757 35.954 271.144 2.32327 1.5 1.5 3.79891 7.85077 52.5 6724.5 181.568 14.1602 0.5 286.583
left_child=-1 24 7 4 5 8 9 10 14 16 -3 54 -12 25 15 -4 35 28 -10 -20 -21 -22 -23 -24 -2 26 -8 37 29 44 -6 36 -28 34 -15 -7 43 53 -13 -29 -30 -42 -40 -25 45 46 -9 48 50 51 -27 -49 -17 -14 -5 -56 -33 -44 -59 -60 61 -51
right_child=1 2 3 11 30 6 13 17 18 -11 12 38 27 33 -16 52 -18 -19 19 20 21 22 23 31 -26 47 32 39 40 -31 -32 56 -34 -35 -36 -37 -38 -39 42 -41 41 -43 57 -45 -46 -47 -48 49 -50 60 -52 -53 -54 -55 55 -57 -58 58 59 -61 -62 -63
leaf_parent=0 24 10 15 54 30 35 26 46 18 9 12 38 53 34 14 52 16 17 19 20 21 22 23 43 24 50 32 39 40 29 30 56 32 33 34 35 36 37 42 39 41 41 57 43 44 45 46 51 48 61 50 51 52 53 55 55 56 58 59 59 60 61
leaf_value=-0.0610842 0.032039 0.0329823 0.00956929 0.0496675 -0.0659402 -0.0187085 0.0392716 -0.00786836 0.0344759 -0.0648134 -0.061669 -0.062174 0.00680815 -0.0287452 -0.0483285 -0.0125106 0.0397348 -0.0366348 -0.0725698 0.0389602 -0.0737713 0.0405814 -0.0727918 -0.0506179 0.0599518 0.0147324 0.0409289 -0.0156499 0.0154678 -0.0538183 0.0420599 0.0310797 -0.0731751 0.0303088 0.0149778 0.0372554 -0.0182645 -0.0619688 0.0271864 -0.0460414 -0.0367495 0.00617743 -0.0377807 0.0157007 -0.0730789 0.00814017 -0.0520717 0.0650206 0.0394956 0.00636893 -0.0557107 0.0178015 -0.0447989 -0.0237493 -0.0361101 0.0146357 -0.00308313 0.0306238 -0.0632945 0.0264443 0.0512211 0.054566


Tree=11
num_leaves=63
split_feature=0 7 0 0 8 8 5 5 5 6 7 8 4 0 4 5 8 8 0 0 2 8 5 0 4 0 10 7 7 7 0 6 5 5 10 8 8 10 10 0 5 6 7 7 6 2 0 0 2 7 8 5 6 10 6 2 7 7 10 10 8 4
split_gain=5.78226e+06 822419 95942.1 88707.5 56375.5 44597.7 39290.9 31011.7 23906.7 21436.1 20430.3 17647.5 15930.6 15796.8 14816.1 14253.9 14390.2 12660.2 18850.5 16969.8 17337.8 12653.9 12607.6 11365.8 10293 8121.84 7530.83 7514.63 22576.3 6986.33 6969.88 6331.85 6200.83 5916.67 5703.68 6102.94 5598.36 5554.19 10157.8 5851.37 5378.44 7896.38 6227.79 21936.2 5482.28 5360.64 5056.63 4970.39 4637.42 4525.97 4593.24 4437.77 6052.76 4293.7 4261.87 4102.48 4098.91 32511.6 3856.96 3627.27 3500.97 9599.47
threshold=5133.5 1.5 7111 3572.5 2489 3739 0.00254669 0.00254669 0.00254669 2.71081 1.5 140.5 0.5 33209 1.5 479.386 68.5 11468.5 24881 11474 21.5 6724.5 0.00254669 8664.5 1.5 15493 4.93689 3.5 2.5 1.5 821.5 248480 3.00993 31.368 252.715 2878.5 1909.5 10.9723 44.008 16992 17.5023 21.9603 3.5 2.5 248480 4.5 4449 4449 1444 21.5 780.5 0.00254669 248480 1214.49 47.1637 2.5 3.5 2.5 16.8671 208.113 24636.5 1.5
left_child=3 -2 5 22 23 8 29 -6 -3 45 -8 14 15 17 47 16 -10 19 26 21 37 33 24 36 -1 -25 -19 28 31 -5 -26 -14 54 -11 35 -35 51 -21 -39 -40 -27 -42 43 44 -43 -9 -16 -12 -37 59 -51 -4 56 -13 -7 -45 57 -53 -23 -18 -20 -62
right_child=1 2 4 6 7 32 10 9 12 13 11 53 27 -15 46 -17 49 18 60 20 -22 58 -24 25 30 40 -28 -29 -30 -31 -32 -33 -34 34 -36 48 -38 38 39 -41 41 42 -44 55 -46 -47 -48 -49 -50 50 -52 52 -54 -55 -56 -57 -58 -59 -60 -61 61 -63
leaf_parent=24 1 8 51 29 7 54 10 45 16 33 47 53 31 13 46 15 59 26 60 37 20 58 22 25 30 40 26 27 28 29 30 31 32 35 34 48 36 38 39 39 41 44 42 55 44 45 46 47 48 50 50 57 52 53 54 55 56 57 58 59 61 61
leaf_value=-0.0613157 -0.0607368 0.057546 0.058389 -0.0623828 0.058661 -0.0349143 -0.0599199 0.0285088 0.0296028 0.0592359 -0.0451608 -0.0460835 0.0321809 0.0647774 -0.00127248 0.0349528 0.0483853 0.0651717 0.0639259 0.0646853 0.0569171 0.0625372 -0.0617259 0.0595576 -0.0494834 0.0588648 -0.0677364 0.0371566 -0.0792824 0.0513633 0.0320844 -0.056381 -0.0669415 -0.107176 -0.0548909 0.070053 -0.0447881 -0.0904019 0.0469707 -0.0212582 -0.120785 0.0449254 0.053003 0.0853048 -0.04247 -0.0582701 0.0348675 -0.00255417 -0.0633687 0.0259717 -0.046183 0.0442778 -0.0407365 -0.00688368 0.0785469 -0.082556 0.0489535 -0.101878 -0.0647778 -0.0604261 0.060164 -0.072653


Tree=12
num_leaves=63
split_feature=0 7 0 0 8 8 5 5 5 7 6 8 0 4 6 5 4 0 8 0 0 2 8 4 0 7 7 7 8 0 8 5 6 7 7 5 6 0 5 5 6 5 6 4 0 0 0 4 0 6 6 0 8 2 7 7 8 2 8 8 6 8
split_gain=5.05595e+06 718390 89724.8 85800.5 50234.5 38117 33338.3 28225.7 22521.4 20133.6 18449.2 14907.5 14132.8 13391 12428.6 12279.7 12228.8 11496.8 10801.8 16538.8 14424.8 15068.2 10923.1 8795.78 8124.09 6335.73 18785 6071.65 6040.79 5955.62 5944.89 5666.85 6558.96 5754.11 18611.6 5581.61 5319.16 5011.51 4993.17 4879.95 5679.74 4764.65 4675.73 4451.06 4232.56 4156 3970.97 3638.17 3631.84 3611.61 3523.43 3446.26 3666.37 3428.06 3385.39 27109.4 3322.66 3224 3172.79 3134.75 3124.24 7555.77
threshold=5133.5 1.5 7111 3572.5 2489 3739 0.00254669 0.00254669 0.00254669 1.5 2.71081 140.5 33209 0.5 17.2263 0.00254669 1.5 8664.5 11468.5 24881 11474 21.5 6724.5 1.5 15493 3.5 2.5 1.5 1494.5 520.5 60.5 17.5023 21.9603 3.5 2.5 3.00993 248480 6320 31.368 0.00254669 248480 1.00903 248480 0.5 4449 4449 9562 1.5 16992 47.1637 128.75 5371 3085.5 2.5 3.5 2.5 1222.5 2.5 5833 1909.5 36.9678 5833
left_child=3 -2 5 15 17 8 27 -6 -3 -8 41 16 18 14 30 23 44 39 20 -20 22 48 38 -1 -19 26 36 -5 37 -25 -10 -26 -33 34 42 49 -15 -16 47 -4 54 43 -34 -9 -11 -18 -40 -12 -22 58 -13 52 -30 -36 55 -41 -32 -28 -7 -56 61 -23
right_child=1 2 4 6 7 35 9 10 13 11 12 50 -14 25 28 -17 45 24 19 -21 21 60 -24 29 31 -27 57 -29 51 -31 56 32 33 -35 53 -37 -38 -39 46 40 -42 -43 -44 -45 -46 -47 -48 -49 -50 -51 -52 -53 -54 -55 59 -57 -58 -59 -60 -61 -62 -63
leaf_parent=23 1 8 39 27 7 58 9 43 30 44 47 50 12 36 37 15 45 24 19 19 48 61 22 29 31 25 57 27 52 29 56 32 42 33 53 35 36 37 46 55 40 41 42 43 44 45 46 47 48 49 50 51 52 53 59 55 56 57 58 59 60 61
leaf_value=-0.0577448 -0.0595214 0.056152 0.056604 -0.0609489 0.0574302 0.0729727 -0.0588006 -0.0597468 0.0167975 -0.0417815 -0.074179 -0.0502949 0.0630066 0.0297277 0.00238032 -0.0601102 -0.00114555 0.057818 -0.0544782 0.0322918 0.0204775 -0.0211875 -0.0537798 -0.0614496 0.0573618 0.034512 0.0544179 0.0492231 0.101798 0.0245631 -0.0623238 -0.106808 0.0425085 0.0507546 0.076694 -0.064972 -0.0533112 0.0416349 -0.0331658 0.0416189 -0.0393644 -0.0606488 -0.0391406 0.0582891 -0.00229998 0.0317216 0.0360768 0.0688864 -0.0240118 0.0743142 -0.0280376 -0.0791854 -0.0732314 -0.076904 0.0463666 -0.0913463 0.0950163 -0.0841453 -0.0661594 -0.0381842 0.0625049 0.0662718


Tree=13
num_leaves=63
split_feature=0 7 0 0 3 7 9 5 6 9 7 6 5 5 9 0 5 1 6 5 0 7 0 0 9 5 2 0 0 0 6 5 7 7 3 5 1 0 3 7 6 0 6 9 0 5 5 0 9 6 3 1 7 9 9 9 9 6 0 0 0 6
split_gain=4.42834e+06 628439 84008.8 83282 30530.7 28529.2 27692.4 24788.6 19427.6 15738.3 15397.5 17299.5 12222.8 12009.7 10880.8 10851.8 10816.5 10120.3 9841.74 8275.44 8230.9 8148.3 7453.69 7437.89 7311.62 7437.43 19772.8 8011.03 7832.28 9355.37 6029.02 5949.49 5863.89 16833.2 5770.95 5330.81 5198.93 4836.85 4717.93 4299.88 4121.94 3977.47 3963.79 3751.36 3732.07 3731.03 3444.91 3495.05 4411.76 3390.36 4597.56 3368.58 5850.02 3329.07 3614.44 3299.95 3259.13 3070.35 3002.72 4197.19 2999.13 2996.91
threshold=5133.5 1.5 7226 3572.5 0.5 1.5 33.4932 0.00254669 2.71081 88.3563 4123 181.568 119.636 0.00254669 3.026 8664.5 1.00903 5021.5 5.23569 2.50808 15493 2037.5 4710 6320 3.44406 0.762308 3.5 24881 16992 19872 4.75141 14.1602 3.5 2.5 0.5 0.00254669 2056 11589 0.5 5113.5 248480 11800 248480 10.0585 1108.5 119.636 0.335897 5748.5 53.1737 47.1637 0.5 4413 4304.5 302.211 1.8899 23.1736 7.85077 248480 6320 6913 4317 277.55
left_child=3 -2 4 13 9 -5 8 -7 16 14 24 17 22 34 -3 35 55 -12 -11 -6 -17 31 38 -20 -10 -26 27 -27 41 49 -21 -22 33 40 -1 -8 46 -19 -9 -13 -33 43 -37 -28 -36 -45 -16 48 -48 -30 56 52 -24 54 -14 -4 -51 -32 -49 -60 -55 -47
right_child=1 2 6 5 19 7 15 12 10 18 11 39 53 -15 36 20 -18 37 23 30 21 -23 51 -25 25 26 28 -29 29 -31 57 32 -34 -35 44 42 -38 -39 -40 -41 -42 -43 -44 45 -46 61 47 58 -50 50 -52 -53 -54 60 -56 -57 -58 -59 59 -61 -62 -63
leaf_parent=34 1 14 55 5 19 7 35 38 24 18 17 39 54 13 46 20 16 37 23 30 31 21 52 23 25 27 43 27 49 29 57 40 32 33 44 42 36 37 38 39 40 41 42 45 44 61 48 58 48 56 50 51 52 60 54 55 56 57 59 59 60 61
leaf_value=-0.048951 -0.0584631 0.0706322 0.0470268 -0.057873 0.0573658 0.0471874 0.056257 -0.0473658 0.059426 -0.0285394 -0.0869916 0.0680898 0.0898569 -0.0586731 0.0397361 0.0561748 -0.0547625 -0.0649145 0.00563367 -0.0788889 0.0562975 -0.216551 -0.000713335 0.0337403 0.0548633 -0.049143 0.0053875 0.0608354 -0.0655784 0.0423211 0.0333924 0.0395426 0.0485196 -0.0626248 -0.0327938 0.0380528 -0.0615404 0.0621885 -0.0108236 -0.0597663 -0.0379996 0.0587591 -0.0361125 0.0629392 0.0261629 -0.0858636 0.0523281 -0.0574811 -0.0553896 -0.0209152 -0.0345712 -0.0631279 0.139663 -0.00953661 -0.0269906 -0.0459861 0.0626669 -0.0338301 0.0251415 -0.0476614 0.0162799 0.0279281


Tree=14
num_leaves=63
split_feature=7 5 10 6 10 7 7 7 7 7 7 7 4 7 3 5 4 6 5 7 7 7 7 7 7 2 2 2 2 6 1 2 1 5 7 7 1 4 6 5 6 6 1 10 5 6 6 6 5 2 2 6 10 4 5 6 10 7 7 5 6 5
split_gain=1.54031e+06 494775 90847.5 76574.9 26781.3 30000.3 20363.6 252780 22771.4 160021 17290.8 90078.2 14064.3 13419.1 11011 10985.4 10126.5 10028.1 18003.4 11105.1 50783.1 11423.9 35248.1 12019.7 27086.9 7244.32 62623.4 7749.96 52545.5 7006.58 6740.47 6520.62 6092.24 5506.46 4837.89 21297.1 4061.83 3962.85 5865.89 3961.08 4461.92 5562.61 6374.05 3984.45 3915.15 6280.34 3721.84 3721.62 4066.39 3690.33 35091.2 3479.74 4254.74 5540.24 3950.8 3744.7 3741.11 3367.95 13651.2 3259.33 3246.91 4644.53
threshold=1.5 0.00254669 89.6987 248480 5810.92 458.5 3.5 2.5 4.5 5.5 6.5 7.5 1.5 3.5 0.5 99782.8 1.5 2.71081 2.50808 8.5 9.5 10.5 11.5 12.5 13.5 2.5 3.5 4.5 5.5 248480 26002 2.5 3.5 18.6692 14.5 15.5 21.5 1.5 25.4619 8.68297 197.325 167.017 6278.5 748.727 8.68297 15.3842 1925.26 5.23569 3.42905 6.5 7.5 3256.48 1688.98 1.5 52.6733 74.8903 532.164 2.5 3.5 3.00993 7.06775 4.63233
left_child=-1 29 13 4 5 6 7 25 -8 -10 -11 -12 57 -3 30 -5 -7 18 -13 60 -21 -22 -23 -24 -25 -4 -27 -28 -29 32 37 -9 -2 47 -26 -36 -35 46 -39 40 41 42 43 -18 -37 -46 -15 48 -14 -30 -51 54 -53 -54 56 -56 -47 -6 -59 -40 61 -19
right_child=1 2 3 15 12 16 8 31 9 10 11 17 33 14 -16 -17 39 19 -20 20 21 22 23 24 34 26 27 28 49 -31 -32 -33 -34 36 35 44 -38 38 59 -41 -42 -43 -44 -45 45 51 -48 -49 -50 50 -52 52 53 -55 55 -57 -58 58 -60 -61 -62 -63
leaf_parent=0 32 13 25 15 57 16 8 31 9 10 11 18 48 46 14 15 43 61 18 20 21 22 23 24 34 26 27 28 49 29 30 31 32 36 35 44 36 38 59 39 40 41 42 43 45 56 46 47 48 50 50 52 53 53 55 55 56 58 58 59 60 61
leaf_value=-0.0568574 -0.0807357 -0.0350518 0.0332533 -0.0617765 0.0226407 0.0109557 0.0271886 0.00299728 -0.0723986 0.029447 -0.0709365 0.0227504 0.0414201 0.00109266 0.00643846 0.0374794 -0.0224135 0.0318196 -0.0658978 -0.0711801 0.0351735 -0.0718951 0.0370298 -0.0711149 0.0322538 -0.078045 0.0352367 -0.0898147 0.0343809 0.0553828 0.05746 -0.0668183 0.0309981 -0.0182457 -0.0706534 0.0327058 0.00129145 -0.0492401 0.0706579 -0.0330721 -0.0579868 0.102987 0.0616772 0.053938 -0.0517662 0.000884706 -0.0262876 0.0418272 -0.0660483 -0.0861686 0.0235462 0.0232033 0.0201165 -0.00829925 -0.0775772 0.00560921 0.0263632 -0.0601811 0.0123279 -0.0212519 0.0328947 -0.0600907


Tree=15
num_leaves=63
split_feature=0 7 0 0 8 8 7 5 5 5 0 8 0 8 0 1 0 8 5 0 0 9 0 3 5 7 8 6 8 9 1 5 5 8 5 0 8 5 7 7 7 6 9 7 7 8 0 9 0 6 8 3 6 1 7 7 0 9 1 7 7 0
split_gain=3.638e+06 490942 79346.4 78834.3 37861.2 28873.4 23810.2 20362.5 19730.4 18260.3 14805.2 15466.1 13734.7 11123.4 11043.7 10090.2 13341.9 10562.8 9845.63 9237.16 8318.9 7082.4 6904.17 6212.52 5808.83 5701.12 5533.29 5359.18 4587.42 4582.61 4461.09 4346.72 4251.54 4205.97 7906.74 4084.98 4084.12 3888.89 3888.74 3809.58 17743.2 3640.32 3627.64 3616.18 14508.6 3572.46 3415.65 3905.59 3409.3 3351.12 4194.06 7468.06 3164.15 3093.89 3087.55 3007.72 2976.07 2967.9 3477.42 2696.42 11116.4 2657.53
threshold=5133.5 1.5 7226 3572.5 2489 3739 1.5 0.00254669 0.00254669 0.00254669 33209 11468.5 24881 138.5 8664.5 15.5 11345 5833 0.00254669 6320 15493 3.44406 4449 0.5 2.50808 136.5 48.5 248480 6724.5 25.3626 2.5 3.00993 0.00254669 24636.5 6.81667 821.5 3739 133.842 1.5 3.5 2.5 248480 17.5312 3.5 2.5 2762 2490 0.0034965 20078 2.22748 1494.5 0.5 128.75 7018.5 5.5 300.5 6913 1.8899 13449 3.5 2.5 18361
left_child=3 -2 5 18 14 8 -5 -6 -3 -8 11 15 57 22 32 21 17 25 30 23 53 -9 37 26 -22 42 -10 43 36 -18 35 -7 -4 -14 -35 -1 45 -11 -37 40 41 -34 -17 44 -26 61 -20 -48 -38 -21 59 56 -15 -16 -28 -19 -52 58 -13 60 -51 -23
right_child=1 2 4 6 7 31 9 10 19 13 -12 12 33 52 20 16 29 55 46 49 24 28 -24 -25 27 -27 54 -29 -30 -31 -32 -33 39 34 -36 38 48 -39 -40 -41 -42 -43 -44 -45 -46 -47 47 -49 -50 50 51 -53 -54 -55 -56 -57 -58 -59 -60 -61 -62 -63
leaf_parent=35 1 8 32 6 7 31 9 21 26 37 10 58 33 52 53 42 29 55 46 49 24 61 22 23 44 25 54 27 28 29 30 31 41 34 34 38 48 37 38 39 40 41 42 43 44 45 47 47 48 60 56 51 52 53 54 55 56 57 58 59 60 61
leaf_value=-0.046651 -0.0567352 0.0530938 0.053091 -0.0562611 0.0544825 0.00518129 0.0431608 0.0616 0.0204069 -0.0323059 0.0606693 0.0634492 0.0604932 -0.0449948 0.0542019 0.0517395 0.053337 0.0479584 -0.0579468 -0.0206666 0.0555581 0.0345828 0.0162144 0.0211394 0.0383028 0.0582312 -0.0303802 -0.041204 -0.0753026 -0.0108191 -0.0621469 -0.0624126 0.0363344 0.0566502 -0.0685981 -0.0600448 0.0389072 -0.00263881 0.0236225 0.0404922 -0.0814202 -0.0349553 -0.063535 0.0459958 -0.0550486 -0.0480846 0.121363 -0.0513968 -0.0840137 0.0296973 0.0806016 0.0649635 -0.0231672 -0.104361 -0.0029191 -0.0612828 -0.0998309 -0.0620628 -0.0574033 0.0373306 -0.0765767 -0.0534324


Tree=16
num_leaves=63
split_feature=0 7 0 0 8 8 7 3 4 4 8 0 8 8 0 0 0 0 9 10 0 10 0 8 10 9 7 10 10 0 3 10 1 4 4 7 1 10 8 8 0 8 3 10 9 8 1 1 8 9 10 9 10 4 10 9 3 10 0 7 1 10
split_gain=3.19505e+06 430650 77256.2 75437.5 33905.7 24665.5 22531.6 16538.2 16943.3 16512.5 18233.3 14184.3 13565.1 12210.4 17103.4 11187.4 8596.2 8430.3 6965.6 9432.33 7904.86 6159.16 5762.43 5498.42 5349.02 8527.67 5239.13 5360.55 5193.44 6068.64 5459.38 4877.93 6997.63 4833.18 4691.85 5426.62 4620.83 4227.62 4209.72 4043.96 3866.08 10360.6 4528.98 4086.58 11343.2 3757.3 3740.09 12658.5 3731.03 4803.5 3666.58 3538.48 4946.87 3583.21 3491.17 3840.42 3391.23 3368.97 3339.56 3513.86 6111.23 8400.71
threshold=5133.5 1.5 3572.5 7226 2489 3739 1.5 0.5 0.5 0.5 839.5 33209 118.5 11468.5 24881 8664.5 9465 15493 23.1736 44.008 16992 4.93689 2560.5 5833 352.298 13.3069 102.5 252.715 97.5602 3987 0.5 8.6904 26002 1.5 1.5 1.5 2.5 147.086 266.5 462.5 11508 8526 0.5 14.7077 10.0585 40.5 2.5 3.5 1532.5 64.9758 1129.67 104.092 378.758 1.5 1318.72 622.025 0.5 137.892 4710 2291 2830 14.7077
left_child=2 -2 22 5 15 7 -4 8 12 28 51 13 -3 16 21 54 23 -17 40 -20 33 -15 -1 26 25 -10 27 -6 29 -8 45 32 -16 -21 -24 -36 -9 -22 -37 -26 41 -18 -42 -44 -45 -30 -19 -48 49 -27 -39 -11 -53 -54 55 -5 -55 -14 -12 -60 -61 -62
right_child=1 3 6 4 11 -7 9 36 24 10 58 -13 57 14 31 17 18 46 19 20 37 -23 34 -25 39 48 -28 -29 30 -31 -32 -33 -34 -35 35 38 -38 50 -40 -41 42 -43 43 44 -46 -47 47 -49 -50 -51 -52 52 53 56 -56 -57 -58 -59 59 60 61 -63
leaf_parent=22 1 12 6 55 27 5 29 36 25 51 58 11 57 21 32 17 41 46 19 33 37 21 34 23 39 49 26 27 45 29 30 31 32 33 35 38 36 50 38 39 42 41 43 44 44 45 47 47 48 49 50 52 53 56 54 55 56 57 59 60 61 61
leaf_value=-0.0566498 -0.0560184 0.01564 -0.0555956 0.0316776 0.0254702 -0.0470347 -0.0530445 0.0500017 0.0629869 0.0506577 -0.0613581 0.0575917 0.0177862 0.0606282 -0.066792 0.0528639 0.0395442 0.0521833 -0.0988183 -0.0379043 0.0155034 -0.0537832 -0.0562686 -0.0624387 0.0222749 0.0619774 0.0734836 -0.0752645 -0.0156551 0.0861798 -0.00142368 0.0574006 0.0559378 0.0615684 -0.05543 -0.0240574 0.028033 -0.0880159 -0.0511572 0.0569393 0.0520238 -0.062797 0.0580283 -0.0765106 0.062808 -0.05718 -0.0644278 0.0416391 -0.128561 -0.0532617 0.0725019 -0.0524791 -0.0146634 0.00292591 0.0444292 -0.0455428 0.0266329 -0.0489172 -0.0600893 0.157132 0.124111 -0.0602396


Tree=17
num_leaves=63
split_feature=0 7 0 0 8 8 7 6 6 4 8 0 0 0 4 3 8 8 0 0 6 10 8 6 0 8 4 8 10 3 0 10 0 4 7 0 8 6 10 7 0 0 6 10 4 0 8 0 0 8 8 1 0 6 0 10 7 1 6 10 7 7
split_gain=2.80548e+06 377615 75286.8 73081.5 27783.9 27642.4 21217 17004.2 16540 13994.7 15660.4 11473.9 8509.86 7836.55 7519.2 6885.49 6788.85 6685.32 11586.6 6436.15 6385.77 4749.86 4737.51 4720.28 4985.98 4411.12 4358.39 5453.24 4350.18 4281.62 5264.41 7041.36 6609.01 4263.05 5697.95 4186.53 4172.56 4019.14 4079.81 4430.11 4673.4 6900.24 3673.62 3632.38 3736.6 3511.18 3850.95 4150.52 3322.12 4893.13 3260.96 5633.91 3236.64 3135.72 3040.63 3631.16 2967.63 4971.8 6367.89 2917.48 2877.29 2826.6
threshold=5133.5 1.5 3572.5 8569 2489 1909.5 1.5 9.1375 4.75141 0.5 839.5 6422.5 15493 33209 1.5 0.5 118.5 11468.5 24881 2490 237.145 4.93689 697.5 90672.8 8459 4939.5 0.5 2007 64.345 0.5 12983 44.008 12923 1.5 1.5 16992 266.5 129655 480.137 3.5 24881 20454 4.75141 344.147 0.5 8459 3739 7341 19337 3739 24636.5 26002 11077 159019 4710 1214.49 2291 4413 128.75 277.993 401.5 251
left_child=2 -2 19 5 12 7 -4 14 28 20 42 15 52 17 16 22 -3 29 21 -1 59 -19 -9 24 -13 26 -7 -28 -6 30 31 -10 -33 -21 -35 -31 -36 38 39 40 41 -14 -11 -24 -45 46 -29 -48 49 -37 -20 -52 -5 -17 55 -12 -56 58 -58 -8 61 -22
right_child=1 3 6 4 8 25 9 11 13 10 54 23 37 -15 -16 53 -18 18 50 33 60 -23 43 -25 -26 -27 27 45 -30 35 -32 32 -34 34 36 48 -38 -39 -40 -41 -42 -43 -44 44 -46 -47 47 -49 -50 -51 51 -53 -54 -55 56 -57 57 -59 -60 -61 -62 -63
leaf_parent=19 1 16 6 52 28 26 59 22 31 42 55 24 41 13 14 53 16 21 50 33 61 21 43 23 24 25 27 46 28 35 30 32 32 34 36 49 36 37 38 39 40 41 42 44 44 45 47 47 48 49 51 51 52 53 56 55 58 57 58 59 60 61
leaf_value=-0.0557212 -0.0553851 0.00618367 -0.0550074 0.0480302 0.0172045 -0.0511693 0.0138029 0.00898869 -0.0629232 -0.0338352 -0.0643132 0.0344929 0.00700635 0.0567495 0.0240162 0.0212771 -0.0528131 0.0593023 0.0565835 -0.0545339 -0.0070801 -0.0489794 -0.0703882 0.0486684 -0.0027753 -0.049279 -0.143882 0.0500022 -0.0446418 0.0303427 0.0516855 0.0367887 -0.105405 -0.0548605 -0.0232229 -0.0618903 -0.0497908 0.0518698 0.0425858 0.0354665 0.0543683 -0.0921819 0.0111523 -0.0857002 0.0714155 -0.0823848 -0.0402902 0.0634263 0.0267299 0.0669746 -0.0666178 0.0553093 0.0535119 0.047956 -0.0567889 0.108376 -0.0592339 -0.0589973 0.117025 -0.0534487 -0.0660205 0.104541


Tree=18
num_leaves=63
split_feature=0 7 0 0 5 8 8 7 5 5 5 0 6 0 4 8 0 5 8 0 2 4 7 7 0 8 6 6 0 6 10 10 10 5 6 8 6 7 7 0 6 5 0 0 4 0 0 8 0 5 6 6 7 7 2 6 5 4 8 0 5 10
split_gain=2.46333e+06 331064 73451.3 70519.1 27734.3 25766.6 21258.4 19951.3 14470.1 13873.7 13770.7 13082.7 10544 8872.02 8743.72 10322.5 7843.52 7315.53 6834.07 8542.21 6657.06 6621.85 5878.74 23011.3 5580.31 6697.4 5408.91 4993.43 4901.64 4515.85 4457.43 6964.18 4406.89 4167.74 4160.93 4104.72 3939.37 3932.37 7438.76 3930.49 3857.17 5781.1 3816.06 14499.7 6918.99 5083.67 3459.18 3414.21 3401.95 3617 9024.81 7390.93 4307.09 41737.1 4989.27 3368.17 5020.55 3253.64 5589.69 3228.78 3125.18 3076.04
threshold=5133.5 1.5 3572.5 8569 0.00254669 2489 1494.5 1.5 0.00254669 0.00254669 0.00254669 6320 2.71081 15493 0.5 479 33209 2.50808 11468.5 24881 15.5 1.5 3.5 2.5 11345 8526 248480 5.23569 2209.5 248480 10.9723 44.008 4.93689 3.00993 237.145 4487 248480 3.5 2.5 520.5 9.1375 5.36152 33209 20454 1.5 24881 21233 2762 11077 15.0094 17.2263 248480 3.5 2.5 2.5 4.75141 3.00993 0.5 186.5 19337 3.42905 252.715
left_child=2 -2 9 4 -3 13 11 -4 -7 21 -9 27 -10 48 34 29 18 -15 20 32 30 -1 23 36 25 47 42 60 -11 55 -14 -32 -20 -8 -12 61 -13 38 -29 -23 41 57 43 59 -45 46 -46 -22 49 -5 -51 52 53 -52 -55 56 -16 58 -24 -19 -6 -35
right_child=1 3 7 5 6 8 33 10 12 28 14 22 16 17 15 -17 -18 26 19 -21 24 39 40 -25 -26 -27 -28 37 -30 -31 31 -33 -34 35 -36 -37 -38 -39 -40 -41 -42 -43 -44 44 45 -47 -48 -49 -50 50 51 -53 -54 54 -56 -57 -58 -59 -60 -61 -62 -63
leaf_parent=21 1 4 7 49 60 8 33 10 12 28 34 36 30 17 56 15 16 59 32 19 47 39 58 23 24 25 26 38 28 29 31 31 32 61 34 35 36 37 38 39 40 41 42 44 46 45 46 47 48 50 53 51 52 54 54 55 56 57 58 59 60 61
leaf_value=-0.0469496 -0.0548242 0.0505377 -0.0544863 0.0527405 -0.0116342 0.0523379 0.0187018 0.0410293 -0.0375535 -0.0553499 -0.0464655 0.027724 0.0583475 0.0533456 0.054546 -0.0373074 0.0575231 0.0363287 0.0592795 0.0266271 -0.092035 -0.0469099 0.039918 -0.0769175 0.0433047 -0.0616273 -0.0459819 0.00277516 -0.0470415 -0.0640018 -0.0705557 0.00656204 -0.0598533 -0.00063074 -0.0135227 -0.0606341 -0.0363594 0.0146922 -0.0715054 0.0283793 0.0350937 -0.0817301 0.0582698 0.035911 -0.00340975 0.0296922 -0.0636391 0.0366474 0.0524627 -0.192625 0.0418119 -0.0632262 0.0479741 0.0259832 -0.171702 0.00881235 -0.0684959 0.0483963 -0.072809 0.0573804 -0.0762 -0.0511365


Tree=19
num_leaves=63
split_feature=0 2 0 0 5 8 8 5 5 6 6 5 6 6 0 0 8 0 0 0 5 5 4 4 2 5 1 2 2 0 8 8 8 4 8 8 5 5 0 0 4 5 0 8 0 0 8 5 3 3 6 8 5 8 0 1 8 8 8 3 0 4
split_gain=2.16868e+06 239490 97271.6 34146.7 28204.1 22294.6 15607.3 14278.3 14154.2 22491.4 17705.5 14008.6 13429.9 11604.3 11225.5 9557.66 9572.76 8590.51 8484.64 8338.51 7432.25 7317.71 9757.25 7265.74 11474.1 7244.43 6194.62 11969 5945.29 7264.09 6647.45 5742.66 5623.68 4986.75 4568.75 4291.38 4144.95 4088.62 3952.83 15642.6 3686.9 3591.87 3433.52 3402.8 3354.91 4435.35 3122.34 5520.99 3089.89 2976.6 2967.5 6090.25 3734.5 2935.09 2877.57 2860 2792.73 2782.06 3626.56 2680.24 2642.14 2476.64
threshold=4449 1.5 8007 3045.5 0.00254669 2489 3085.5 0.00254669 14.1602 248480 17.2263 0.00254669 8.12685 248480 15493 33209 11468.5 24881 6422.5 8749 99782.8 5.36152 0.5 0.5 3.5 0.00254669 11.5 10.5 17.5 11345 5833 839.5 28.5 0.5 2585.5 116.5 99782.8 3.00993 20454 24881 1.5 119.636 3572.5 976.5 11077 10695 24636.5 6.81667 0.5 0.5 36.9678 5833 5.00309 2762 6422.5 7018.5 1222.5 697.5 2362 0.5 287.5 0.5
left_child=3 -2 4 25 49 8 12 33 -4 10 -10 -7 21 18 19 16 28 -18 32 -12 -11 22 35 57 -25 40 27 38 -13 30 41 42 -14 48 61 -6 -15 54 -16 -40 -1 53 -26 -20 45 55 -19 -48 -5 -3 51 52 -31 -30 -8 -21 -37 -9 -59 -45 -42 -34
right_child=1 2 5 7 6 11 37 23 9 20 14 15 13 36 26 -17 17 46 43 44 -22 -23 -24 24 31 -27 -28 -29 29 50 -32 -33 34 -35 -36 56 -38 -39 39 -41 60 -43 -44 59 -46 -47 47 -49 -50 -51 -52 -53 -54 -55 -56 -57 -58 58 -60 -61 -62 -63
leaf_parent=40 1 49 8 48 35 11 54 57 10 20 19 28 32 36 38 15 17 46 43 55 20 21 22 24 42 25 26 27 53 52 30 31 61 33 34 56 36 37 39 39 60 41 42 59 44 45 47 47 48 49 50 51 52 53 54 55 56 58 58 59 60 61
leaf_value=-0.0493697 -0.0544728 0.0254759 0.0523039 -0.0648296 -0.00151488 0.0516021 -0.0595329 -0.0498961 -0.120784 -0.074811 0.0271515 -0.00523629 0.0276886 -0.0626898 0.0289094 0.0568003 -0.049936 0.0570486 0.0285112 0.045845 0.055809 -0.0699184 0.0322437 -0.0504417 -0.0238643 -0.0538272 0.0400248 -0.212916 -0.0702295 0.0629594 -0.0469811 -0.0501745 -0.0131808 0.0477179 0.0955357 -0.060177 0.0639071 -0.0445891 -0.0413862 0.0504675 -0.0609087 -0.0220634 -0.00125924 -0.0336916 0.0500546 0.0267859 0.0545068 -0.0644299 0.0419521 0.0530358 0.0517548 0.0594644 -0.0492755 0.0647149 0.046062 -0.109027 0.0907613 0.025648 -0.0614862 0.0322494 0.0145034 0.00535695


Tree=20
num_leaves=63
split_feature=0 7 0 0 8 8 6 7 6 6 0 0 8 4 0 4 2 2 10 9 9 10 4 6 2 8 7 9 6 8 0 2 0 9 10 10 10 9 10 0 10 9 10 9 10 9 6 0 10 8 0 7 7 8 10 8 8 0 10 8 9 0
split_gain=1.90777e+06 285383 84330.1 34606.5 21723.7 20533.2 14952.9 12231.9 13484.3 11535.6 11097.3 9309.29 7273.86 6799.28 6608.94 6052.87 5177.42 16236.5 5089.32 8847.61 5944.41 5255.18 6170.09 7455.04 4954.55 4864.32 4607.73 4465.54 4387.61 5083.51 6130.3 4160.32 5309.09 4049.2 4040.6 4028.19 6466.89 5581.76 5130.75 3954.85 3921.71 3761.78 7578.73 4636 3613.04 5294.04 3606.13 3544.17 3392.67 3377.07 3227.06 3222.32 15551.1 3219.34 3153.26 3929.51 3002.5 2813.53 2681.75 2573.26 2819.74 2541.77
threshold=4449 1.5 8569 3045.5 2489 1584 90672.8 1.5 351.363 4.75141 6320 15493 36.5 0.5 33209 1.5 2.5 3.5 588.506 246.233 62.0044 277.993 0.5 2238.61 601.5 4487 155.5 101.061 248480 11468.5 24881 31.5 12983 130.958 4.93689 252.715 147.086 7.06165 523.571 12923 36.9172 3.44406 44.008 6.36978 480.137 157.342 21.9603 11077 64.345 2198.5 2209.5 3.5 2.5 557 405.622 290.5 88.5 7754 1112.67 9541 17.5312 10695
left_child=3 -2 5 50 11 6 10 -5 15 48 12 47 -3 46 28 27 -13 -18 19 20 -12 33 23 -23 -10 35 58 -9 29 31 34 41 39 -22 -31 36 37 -7 -37 40 -33 -11 -43 -44 45 -19 -14 61 -6 -17 -1 52 -20 -24 55 -47 -35 -39 -15 60 -42 -4
right_child=1 2 4 7 9 25 -8 8 24 14 18 16 13 26 -16 49 17 44 51 -21 21 22 53 -25 -26 -27 -28 -29 -30 30 -32 32 -34 56 -36 38 -38 57 -40 -41 59 42 43 -45 -46 54 -48 -49 -50 -51 -52 -53 -54 -55 -56 -57 -58 -59 -60 -61 -62 -63
leaf_parent=50 1 12 61 7 48 37 6 27 24 41 20 16 46 58 14 49 17 45 52 19 33 23 53 23 24 25 26 27 28 34 30 40 32 56 34 38 36 57 38 39 60 42 43 43 44 55 46 47 48 49 50 51 52 53 54 55 56 57 58 59 60 61
leaf_value=-0.0535396 -0.0540907 0.0242472 0.046012 -0.0536484 0.0164465 0.0279094 0.0406863 0.0125178 -0.0033336 0.0575158 0.049323 0.0488574 -0.0488702 -0.00918587 0.0548521 -0.011596 -0.103276 0.0279585 0.0274018 -0.0932032 -0.0218195 -0.0658407 0.00767804 0.0453194 -0.0602822 -0.0436922 0.0857829 -0.0532283 0.0418514 0.059036 0.0246784 -0.0590413 0.051637 0.0321639 -0.05821 -0.0629911 0.0724009 -0.0606646 0.0635434 -0.0944394 0.0549356 -0.0758974 -0.0830853 0.021927 0.0386129 0.0276698 -0.0105997 0.0505703 -0.0410364 -0.0575213 -0.0445918 0.0338651 -0.0765305 0.0519165 0.00733368 -0.125528 -0.195725 0.0215279 0.0128285 -0.0407029 -0.00417464 0.0343167


Tree=21
num_leaves=63
split_feature=0 7 0 0 5 5 6 0 0 7 3 0 0 0 5 2 4 5 4 5 6 6 7 7 2 0 2 1 0 0 6 4 5 0 7 2 0 5 4 6 3 0 6 5 0 7 7 0 0 7 5 0 4 0 7 7 1 5 6 7 1 7
split_gain=1.67598e+06 250141 80254.9 35535 27483.9 16312.3 30338.6 15863.2 13095.4 12203.1 13990.1 11233.2 10279 9727.69 8820.17 8489.55 7193.32 7105.46 7057.94 7040.06 5153.03 5120.22 4886.42 80381.6 12650.1 4695.13 4295.2 4226.82 3721.66 3642.3 3627.24 3517.88 3503.21 3424.83 3223.01 3081.03 3059.52 2897.18 2874.87 11740.7 4858.37 5708.86 2831.86 7760.95 2782.45 2762.48 12026.5 2717.32 2684.09 2623.46 2596.96 2497.5 3802.22 2458.64 2447.05 3422.84 2407.47 2271.15 4174.54 2235.71 2057.2 2027.95
threshold=4449 1.5 8569 3045.5 0.00254669 0.211138 248480 16838 6320 1.5 0.5 33209 21233 24881 0.00254669 3800.5 1.5 0.00254669 0.5 99782.8 5.23569 248480 3.5 2.5 2.5 8459 2896.5 4413 14739 19337 248480 0.5 3.00993 20454 4304.5 2750 14932 3.42905 0.5 1758.67 0.5 8007 2.22748 1.00903 2209.5 3.5 2.5 3846 6623 2291 99782.8 28422 1.5 287.5 1225 1174.5 15.5 5.8664 326.648 60.5 5752 3.5
left_child=3 -2 4 14 -3 -4 7 15 20 -5 18 12 29 16 31 22 -14 -12 -11 -8 32 27 23 -7 -25 26 30 34 57 -9 38 -1 -6 -31 35 49 -26 60 39 40 41 48 43 -24 -16 46 -40 -19 -10 61 -32 -15 -53 -33 55 -20 -35 -17 -59 -54 -28 -22
right_child=1 2 5 9 8 6 19 11 25 10 17 -13 13 51 44 28 -18 47 54 -21 21 -23 42 24 36 -27 37 -29 -30 33 50 53 -34 56 -36 -37 -38 -39 45 -41 -42 -43 -44 -45 -46 -47 -48 -49 -50 -51 -52 52 59 -55 -56 -57 -58 58 -60 -61 -62 -63
leaf_parent=31 1 4 5 9 32 23 19 29 48 18 17 11 16 51 44 57 16 47 55 19 61 21 43 24 36 25 60 27 28 33 50 53 32 56 34 35 36 37 46 39 40 41 42 43 44 45 46 47 48 49 50 52 59 53 54 55 56 58 58 59 60 61
leaf_value=-0.0539508 -0.0536756 0.047546 0.0526855 -0.0532778 -0.0101026 0.0434334 -0.0835224 0.0199376 0.00812963 -0.0463603 0.0521393 0.055997 0.0309842 0.0567772 -0.0532901 -0.0651603 -0.0585828 -0.0175004 -0.0166508 0.0542389 -0.00575143 -0.0562606 0.0449639 0.0225755 -0.161881 -0.0132976 -0.0635665 -0.0562093 0.0561898 0.0515218 -0.0626606 -0.0543849 -0.0631728 -0.00989688 0.100972 -0.0569445 -0.0820378 -0.0549938 0.0257986 0.0426195 0.0339702 0.0540426 0.0464773 -0.0441602 -0.0445645 0.031453 -0.0628556 0.00952433 -0.0438896 0.100804 0.0627254 0.0551021 0.0121636 0.0139346 -0.0558236 0.196574 0.048869 0.0559652 -0.0658197 -0.0603402 0.0706181 0.00899507


Tree=22
num_leaves=63
split_feature=0 7 0 0 5 8 8 5 7 3 5 7 7 0 5 0 8 2 4 8 0 5 0 0 7 2 9 7 8 7 7 0 8 0 8 0 0 9 9 5 4 3 4 0 8 5 5 4 8 9 8 5 2 0 9 8 0 0 8 4 5 2
split_gain=1.47404e+06 219460 76263.9 36104.1 25336.3 20125.9 13850.6 12747.8 12018.9 11912.9 10309.9 11841.8 58168.2 9581.46 8650.42 7661.61 8899.06 6713.26 6579.99 6477.69 6287.12 6227.65 6146.7 9116.19 5149.7 4756.92 4198.81 4299.25 3953.46 3944.73 13696.4 3909.56 6286.93 3776.91 3629.43 3543.52 3475.87 3235.32 6829.53 3237.62 3205.14 8021.15 3099.76 3068.98 2960.83 4047.12 3807.23 2759.39 2752.62 2662.31 2637.21 4370.45 2590.2 2560.54 4740.92 3159.12 2554.42 5896.98 4156.04 2688.36 2623.5 2518.85
threshold=4449 1.5 8569 3045.5 0.00254669 1444.5 1444.5 0.00254669 1.5 0.5 17.5023 3.5 2.5 6422.5 0.00254669 33209 11468.5 2.5 0.5 38.5 24881 0.00254669 20454 24881 9.5 25.5 88.3563 401.5 436.5 3.5 2.5 11345 8526 15493 378.5 15003 3572.5 3.44406 12.061 0.762308 0.5 0.5 0.5 2209.5 4487 3.00993 33.6333 1.5 26.5 25.3626 24636.5 6.81667 7018.5 15682 23.1736 2762 15682 15853 3085.5 1.5 68.863 13.5
left_child=3 -2 4 14 -3 10 13 -7 -5 18 -4 12 22 19 42 16 25 -14 26 -6 -18 -11 28 47 40 37 27 36 -12 30 48 32 52 -13 61 -19 -10 -9 39 -39 41 -21 -1 -16 46 -46 -8 -24 -15 -33 -22 -52 -27 -40 -55 -56 58 -58 -51 -59 -61 -20
right_child=1 2 5 8 6 7 44 15 9 21 11 33 17 29 43 -17 20 35 34 24 50 -23 23 -25 -26 31 -28 -29 -30 -31 -32 49 -34 -35 -36 -37 -38 38 53 -41 -42 -43 -44 -45 45 -47 -48 -49 -50 56 51 -53 -54 54 55 -57 57 59 -60 60 -62 -63
leaf_parent=42 1 4 10 8 19 7 46 37 36 21 28 33 17 48 43 15 20 35 61 41 50 21 47 23 24 52 26 27 28 29 30 49 32 33 34 35 36 39 53 39 40 41 42 43 45 45 46 47 48 58 51 51 52 54 55 55 57 59 58 60 60 61
leaf_value=-0.0522344 -0.0533051 0.0466011 0.0507297 -0.052947 0.0210482 0.0499639 0.01793 0.0568585 -0.0478199 0.0507229 0.0411592 0.0468074 0.040523 0.0385923 -0.0526982 0.0550014 -0.0476246 -0.133125 -0.0198014 -0.0519525 0.0554706 -0.0048515 0.0257233 0.0475358 0.0134289 0.0310709 -0.050485 -0.0598887 0.0177739 0.0267397 -0.0671489 0.0456692 -0.0592095 0.0354807 -0.0410819 -0.0666981 0.0692201 0.0242848 0.0276858 -0.0698318 -0.00504491 0.0208659 0.00302321 -0.0431961 0.0126186 -0.0579201 -0.0295206 -0.0652871 0.0104288 0.054622 0.0534453 -0.0624815 -0.0717737 0.0624271 0.000682898 -0.0545249 -0.238139 0.0577051 -0.119067 -0.0908346 0.0153592 0.00631015


Tree=23
num_leaves=63
split_feature=0 7 0 0 5 5 6 10 7 10 6 9 5 0 9 6 5 5 0 0 9 0 0 4 1 4 6 1 1 6 5 4 5 9 0 7 5 1 7 0 1 7 1 4 9 7 7 0 0 7 7 7 7 10 9 9 7 7 0 6 10 4
split_gain=1.29597e+06 192588 72664 36836.6 23327.5 17790.4 26332.7 20303.6 15118.9 13422.2 11448.6 10353.4 9330.32 8852.22 8412.55 6821.29 6170.14 5966.53 5871.98 5876.94 5607.78 5368.98 9501.5 6449.54 5987.22 5300.76 4316.41 4129.02 4499.71 3967.15 3924.86 3915.12 3885.21 3828.35 3800.19 3559.99 5096.4 3429.82 3571.88 3235.39 4347.15 3021.72 3250.45 2960.39 2925.14 3710.9 4442.55 4512.88 3283.11 2872.74 7836.07 2838.57 22438.1 2762.02 2720.83 2670.56 2507 12960.1 2503.12 2501.43 2336.06 2176.26
threshold=4449 1.5 8569 2560.5 0.211138 0.211138 248480 424.358 1.5 480.137 351.363 185.718 0.762308 6736.5 3.026 2.22748 0.00254669 99782.8 15493 11077 230.339 16037 33209 1.5 4286 1.5 8.12685 603 15.5 248480 1.00903 0.5 5.36152 101.061 8459 2.5 20.0238 4413 3.5 15853 2020.5 4304.5 2830 1.5 3.026 236.5 3.5 16260 16992 3.5 2.5 3.5 2.5 260.832 7.85077 0.0034965 3.5 2.5 16187 248480 335.408 0.5
left_child=3 -2 4 16 -3 -4 7 11 -5 14 25 15 -12 26 -6 30 61 -8 19 51 37 24 23 -23 49 33 32 28 55 56 -7 53 43 -10 -15 36 -27 38 -16 40 -20 42 -40 -11 -25 46 47 -46 -47 50 -17 52 -9 -30 -26 -14 57 -28 -41 -57 -13 -1
right_child=1 2 5 8 9 6 17 18 10 13 12 60 27 34 20 21 -18 -19 39 -21 -22 22 -24 44 54 35 29 -29 31 -31 -32 -33 -34 -35 -36 -37 -38 -39 41 58 -42 -43 -44 -45 45 48 -48 -49 -50 -51 -52 -53 -54 -55 -56 59 -58 -59 -60 -61 -62 -63
leaf_parent=61 1 4 5 8 14 30 17 52 33 43 12 60 55 34 38 50 16 17 40 19 20 23 22 44 54 36 57 27 53 29 30 31 32 33 34 35 36 37 42 58 40 41 42 43 47 48 46 47 48 49 50 51 52 53 54 59 56 57 58 59 60 61
leaf_value=-0.0535792 -0.0529738 0.0451686 0.0518935 -0.0526942 0.0478301 0.0164419 -0.0819926 0.0360097 0.00726918 -0.0241984 0.0405875 -0.157272 0.119105 0.0284138 -0.0324855 0.029413 -0.0517811 0.0520947 0.0130014 0.0489431 -0.100728 0.0353919 0.054643 0.0523855 -0.0347029 0.0620483 0.0132265 -0.0569195 0.0389898 -0.054302 -0.0535798 0.0162327 -0.0668847 -0.0499735 -0.00897313 -0.0280372 -0.0242993 -0.0542881 -0.00177158 0.0543195 -0.168583 0.0901839 -0.0563691 0.0320424 -0.14608 0.0595703 0.00999428 -0.0208369 -0.0590878 0.0390482 -0.0703585 0.0413729 -0.100343 -0.0339739 0.0550433 -0.0175818 0.0161529 -0.0715055 0.0322042 -0.0541207 -0.0481373 -0.00146859


Tree=24
num_leaves=63
split_feature=0 2 0 0 10 2 2 10 6 2 4 8 8 0 4 3 8 0 0 8 8 4 6 10 0 8 0 10 8 10 8 0 10 8 8 6 0 3 3 6 0 10 8 1 1 2 10 8 8 8 0 10 8 2 2 6 8 1 4 0 0 4
split_gain=1.13847e+06 126318 72461.6 37344.6 16762.6 13986.4 20716 10262.1 10252.7 9353.9 11093.5 7726.2 7269.5 7042.89 6895.67 14619 8676.44 6270.46 9007.4 11873.5 5961.57 5306.98 5048.81 5657.82 5043.11 5484.4 5033.58 4296.64 3902.38 6044.06 7278.44 3899.98 3863.38 5429.42 3750.84 3602.29 3350.74 3266.24 2939.16 2921.11 2993.94 3187.51 2908.57 2889.79 2844.1 10029.8 2719.64 3175.77 3713.75 2655.54 2633.99 2620.57 2615.63 2598.15 2508.91 2415.31 3356.62 2364.66 3187 2336.32 7286.09 2737.24
threshold=4449 1.5 8664.5 2560.5 424.358 2.5 3.5 1500.74 159019 1.5 0.5 24.5 158.5 15493 0.5 0.5 4487 33209 16037 10810 2251.5 1.5 2567.54 137.892 11077 3739 3572.5 405.622 456.5 335.408 574.5 6736.5 598.757 168.5 541 590.207 5519 0.5 0.5 159019 15853 469.054 1335 25.5 7.5 6.5 378.758 2251.5 1409 3498.5 16187 147.086 130.5 15.5 324.5 197.325 2115.5 3007 1.5 33209 21233 1.5
left_child=3 -2 5 -1 8 37 -7 11 12 -5 27 -8 -4 24 15 22 28 18 19 44 26 43 23 -13 25 -6 53 -11 32 30 -30 -9 52 -34 -23 -32 -37 46 -29 40 41 -15 -31 -20 45 -14 47 48 -3 -39 -42 -38 -16 -12 -36 56 -55 -46 -59 60 -52 -62
right_child=1 2 4 9 13 6 7 31 -10 10 20 14 17 39 16 -17 -18 -19 21 -21 -22 34 -24 -25 -26 -27 -28 38 29 42 35 -33 33 -35 54 36 51 49 -40 -41 50 -43 -44 -45 57 -47 -48 -49 -50 -51 59 -53 -54 55 -56 -57 -58 58 -60 -61 61 -63
leaf_parent=3 1 48 12 9 25 6 11 31 8 27 53 23 45 41 52 15 16 17 43 19 20 34 22 23 24 25 26 38 30 42 35 31 33 33 54 36 51 49 38 39 50 41 42 43 57 45 46 47 48 49 60 51 52 56 54 55 56 58 58 59 61 61
leaf_value=-0.0505962 -0.0531729 -0.0188018 0.0490428 -0.0525908 0.0390935 -0.0760679 0.0415307 0.0114595 0.0443256 -0.00270827 -0.0265538 0.0299031 0.0181964 -0.112277 0.0207791 0.0303673 -0.03987 0.0541864 0.00277036 -0.0561367 -0.0557018 -0.0697544 0.00438208 -0.0568595 0.0485271 -0.108645 0.00136095 -0.0493108 -0.134372 0.0456462 0.0304098 0.028955 -0.0151005 0.0222329 -0.000456119 -0.0681947 -0.0558742 0.0396767 -0.0148264 0.0467767 0.0525025 0.011456 -0.0104453 0.0506024 0.0360095 -0.225036 0.0246386 0.0503435 -0.151684 -0.0658807 0.0316373 0.0156345 -0.0346434 -0.0385108 -0.0334866 0.00944357 0.161339 -0.056039 0.028394 0.0549374 0.0278338 -0.0319575


Tree=25
num_leaves=63
split_feature=0 7 0 0 5 5 6 8 7 3 0 8 8 7 7 5 5 0 8 0 6 0 7 7 5 6 7 7 5 2 1 0 5 2 1 0 8 6 5 6 2 3 7 2 8 3 8 0 0 0 8 1 1 0 6 0 0 3 0 0 6 5
split_gain=996425 153262 63793.5 38278.5 21175.5 19020.8 23822.6 18594.8 14994.3 10064.7 10056.5 9759.31 7724.74 7913.27 11631 7519.59 6488.03 5725.18 5618.96 5037.81 5025.49 4972.44 4842.85 48685.9 4837.79 4239.27 3972.47 9011.79 3930.65 3587.54 3194.08 3181.32 2930.95 2930.5 2745.4 4376.29 4459.2 2689.39 5108.27 2662.92 2584.33 2496.8 2420.61 2392.36 2297.98 2816.24 2797.89 2280.86 2274.09 6773.49 2218.69 3319.74 2118.34 2113.06 2081.04 2061.76 2233.99 1949.77 1849.04 1846.38 1823.29 2769.62
threshold=4449 1.5 8664.5 2560.5 0.00254669 0.211138 248480 1444.5 1.5 0.5 15493 36.5 4487 3.5 2.5 0.00254669 0.00254669 33209 11468.5 24881 197.325 6320 3.5 2.5 99782.8 248480 3.5 2.5 3.00993 2.5 661 3846 99782.8 2.5 29.5 11345 8526 36.9678 9.6146 248480 15.5 0.5 384.5 2.5 930.5 0.5 3498.5 11077 20454 24881 24636.5 26002 2.5 6623 2.22748 11413 11474 0.5 287.5 10695 9.1375 5.36152
left_child=3 -2 4 15 41 -4 7 10 -5 20 22 39 13 14 25 52 -11 18 34 -20 -10 60 23 47 -8 -13 27 48 53 -25 40 -18 -27 -16 55 36 -36 38 -37 -6 -22 -3 44 -29 54 46 -46 59 -12 -50 -21 -52 58 -14 -23 57 -57 -9 -1 -7 61 -15
right_child=1 2 5 8 11 6 24 17 9 16 26 12 28 21 33 -17 31 -19 19 50 30 42 -24 29 -26 32 -28 43 -30 -31 -32 -33 -34 -35 35 37 -38 -39 -40 -41 -42 -43 -44 -45 45 -47 -48 -49 49 -51 51 -53 -54 -55 -56 56 -58 -59 -60 -61 -62 -63
leaf_parent=58 1 41 5 8 39 59 24 57 20 16 48 25 53 61 33 15 31 17 19 50 40 54 22 29 24 32 26 43 28 29 30 31 32 33 36 38 36 37 38 39 40 41 42 43 46 45 46 47 49 49 51 51 52 53 54 56 56 57 58 59 60 61
leaf_value=-0.0490443 -0.0525976 0.0231591 0.0512241 -0.0522222 0.0254834 0.0359508 -0.0809225 -0.0383669 -0.0381733 0.0466716 0.027155 0.00380363 -0.057393 -0.00156516 0.0277449 -0.0506898 -0.0161125 0.0536276 -0.0449652 0.054836 -0.0234126 -0.0254799 0.0448509 0.0165801 0.0490625 -0.0615396 0.0322328 0.0630374 -0.0570054 -0.116947 -0.0553857 0.0108135 0.056198 -0.068758 0.0158124 0.0289396 -0.0586765 0.0445115 -0.0765029 -0.0512289 -0.000323943 0.0509429 0.0656322 -0.0721049 -0.0391494 0.025338 0.063351 0.0455426 -0.0370362 0.0459989 -0.0606918 0.0526068 -0.0547148 0.0441312 0.0208391 -0.119405 -0.000281057 0.046563 0.0130837 0.00902031 0.00307224 -0.0639442


Tree=26
num_leaves=63
split_feature=0 7 0 5 8 5 0 7 7 8 7 4 5 4 3 7 8 7 7 5 0 8 2 8 8 0 8 8 2 3 0 0 5 1 1 0 8 0 0 0 0 1 2 5 8 8 8 7 2 5 3 8 0 4 5 7 2 7 7 0 8 0
split_gain=876387 146527 77278.5 22804.3 18513.4 17899.5 16996 13188.2 48266.8 9500.73 8847.2 7618.78 7379.64 6850.34 13082.6 8952.61 7697.83 7250.39 12346.6 6466.72 5843.7 5713.39 5199.06 4774.19 4517.32 4498.69 4398.24 4119.78 3809.22 3741.29 3625.97 4655.13 3573.27 4735.15 3563.66 4002.22 4066.97 3213.36 3218.53 2941.07 2750.04 2528.26 25868.4 8844.13 2380.68 2866.09 3264.11 2363.91 3431.08 2312.05 2303.18 2281.79 2428.54 4452.33 3559.03 3187.39 2281.67 2189.98 2284.54 2196.27 2565.48 2181.28
threshold=3846 1.5 8007 0.211138 1444.5 0.00254669 2209.5 3.5 2.5 20.5 1.5 1.5 5.00309 0.5 0.5 9.5 1584 3.5 2.5 0.00254669 33209 179.5 2.5 436.5 11468.5 24881 98.5 182.5 15.5 0.5 15493 8749 18.6692 3.5 31.5 11345 5833 20454 33209 6623 7226 3.5 2.5 756.244 442.5 2251.5 1909.5 133.5 264.5 27.5387 0.5 5833 16992 1.5 68.863 4304.5 16.5 31.5 791.5 5519 1335 6623
left_child=6 -2 5 -4 7 29 19 8 23 -7 -8 -12 -13 14 15 26 17 18 32 -1 24 28 -10 37 34 -26 -11 -17 -14 44 31 -9 33 -15 -6 36 49 41 -39 47 -28 42 43 -5 -3 46 -46 48 -19 -36 -25 52 55 -54 -55 -37 -29 -58 59 60 -59 -18
right_child=1 2 3 4 20 9 10 30 22 13 11 12 21 16 -16 27 61 39 -20 -21 -22 -23 -24 50 25 -27 40 56 -30 -31 -32 -33 -34 -35 35 51 -38 38 -40 -41 -42 -43 -44 -45 45 -47 -48 -49 -50 -51 -52 -53 53 54 -56 -57 57 58 -60 -61 -62 -63
leaf_parent=19 1 44 3 43 34 9 10 31 22 26 11 12 28 33 14 27 61 48 18 19 20 21 22 50 25 25 40 56 28 29 30 31 32 33 49 55 36 38 38 39 40 41 42 43 46 45 46 47 48 49 50 51 53 54 54 55 57 60 58 59 60 61
leaf_value=-0.00887336 -0.0523044 0.0299767 0.0509122 -0.0664915 -0.000409862 0.0249581 -0.0520018 0.0241894 0.0334968 -0.0197652 -0.0399386 0.0336942 -0.0186417 -0.0606782 0.024459 0.0187297 -0.0351142 0.00837055 -0.0649756 -0.0506522 0.0532705 -0.0393198 -0.0867675 -0.00786342 -0.0434636 0.0188783 -0.0528593 0.0739135 0.0141214 0.0501323 0.0306551 0.044065 -0.00360837 0.0516163 0.0505146 0.043543 -0.0451574 -0.0185061 0.0540836 0.0261089 -0.110097 0.0386825 -0.211203 0.0401115 -0.0394372 0.0529311 -0.28229 0.0535711 -0.124965 -0.00344005 0.0234136 0.0554746 0.0555388 -0.0905207 0.0138994 -0.0448162 -0.0595214 -0.0276564 -0.0556277 -0.0220594 0.0675319 -0.000282407


Tree=27
num_leaves=63
split_feature=0 7 0 5 5 6 0 8 0 7 0 4 8 5 8 5 0 0 0 6 6 5 8 8 5 0 8 7 7 7 7 3 0 0 0 1 8 1 7 8 0 4 7 7 7 7 6 8 4 3 8 0 4 6 1 0 8 0 6 5 8 5
split_gain=770509 128497 71868.7 20454 19521.5 19676.7 17609.8 15529.1 9879.94 8934.22 8856.14 6936.31 6843.52 6541.18 6181.38 6148.64 5211.46 4897.57 4677.82 4586.75 4831.17 4879.77 4388.19 4137.28 3922.74 3743.59 3451.53 3882.87 24419.5 3578.79 5716.38 3311.13 3299.96 7209.03 3791.27 3068.09 3058.2 2852.68 2684.05 3527.41 2625.6 2570.63 2392.02 7606.76 2380.81 11077 2366.33 2170.9 2377.56 2525.4 2425.71 2356.2 2162.49 2152.03 2100.11 3404.95 3600.8 2519.13 2187.27 3985 2826.4 2069.18
threshold=3846 1.5 8664.5 0.211138 0.211138 248480 2209.5 1409 15493 1.5 6320 1.5 3085.5 0.00254669 6205 0.335897 11077 33209 10695 248480 5.23569 3.79891 179.5 11468.5 99782.8 24881 20.5 5.5 4.5 3.5 2.5 0.5 33209 20454 19337 17.5 24.5 15.5 334.5 1005 10868 0.5 3.5 2.5 3.5 2.5 2.22748 2585.5 0.5 0.5 1256.5 5371 0.5 8288.42 29.5 11345 8526 11413 36.9678 5.00309 5833 36.4831
left_child=6 -2 3 31 -4 7 13 8 16 -8 12 53 19 -1 26 -13 18 23 44 20 21 41 37 54 -7 -25 -12 28 29 30 -28 -3 33 34 -10 61 -22 -17 39 46 -20 -5 43 -38 45 -6 -29 48 49 -44 -50 -52 -41 -11 57 56 -56 -9 59 -57 -61 -35
right_child=1 2 4 10 5 24 9 17 32 11 14 15 -14 -15 -16 22 -18 -19 40 -21 36 -23 -24 25 -26 -27 27 38 -30 -31 -32 -33 -34 35 -36 -37 42 -39 -40 52 -42 -43 47 -45 -46 -47 -48 -49 50 -51 51 -53 -54 -55 55 58 -58 -59 -60 60 -62 -63
leaf_parent=13 1 31 4 41 45 24 9 57 34 53 26 15 12 13 14 37 16 17 40 19 36 21 22 25 24 25 30 46 28 29 30 31 32 61 34 35 43 37 38 52 40 41 49 43 44 45 46 47 50 49 51 51 52 53 56 59 56 57 58 60 60 61
leaf_value=-0.00802548 -0.0520779 0.0190075 0.0505705 -0.0214286 0.033074 -0.0765864 -0.0518047 0.0344952 0.0225819 -0.0440408 0.0326196 0.0446695 -0.0440669 -0.0501761 -0.0562294 -0.0162878 0.0439543 0.0529511 -0.00145294 -0.0523192 0.0182713 -0.063948 -0.034289 -0.0410106 0.0471185 0.0172267 0.00609727 -0.0408684 -0.16049 0.0234763 -0.0528189 0.0497941 0.0539153 0.0308393 0.0524914 0.0246135 0.000361236 0.0115588 0.057239 -0.0609643 0.0310739 0.0384672 -0.0186454 -0.0616328 0.0406299 -0.0745955 0.0223209 0.0699475 0.0110187 0.0197373 -0.0679462 0.0180586 0.000331663 -0.0178745 0.0139992 0.0540138 -0.0572648 -0.00275554 0.041765 -0.0444513 0.0555453 -0.0328067


Tree=28
num_leaves=63
split_feature=7 1 1 8 2 2 2 9 8 10 9 8 8 7 7 8 10 9 8 10 9 7 8 2 8 6 10 9 6 6 6 7 7 7 9 10 9 9 1 2 9 8 2 7 7 4 9 6 8 10 9 10 8 10 8 10 8 9 9 10 9 10
split_gain=324794 82204 50838.5 25020.7 13649.7 89059.8 10865.9 10782.3 13708 9661.57 11199.9 8890.85 6887.5 6792.19 6117.14 6025.96 7412.06 10455.7 6735.15 6301.25 11431.3 5763.07 4784.41 4653.09 4575.33 3991.01 3956.08 12486.6 3595.03 3537.96 4073.1 4063.14 3483.34 7300.73 3422.91 6945.92 3441.33 3350.85 9901.13 3212.41 3113.97 3897.38 3072.83 3055.3 5113.41 3000.99 4257 4096.63 3795.53 4711.68 15613.5 6495.53 4270.3 2969.91 3918.39 6167.7 2906.32 3323.41 2796.58 9614.56 2557.28 5949.98
threshold=1.5 2.5 3.5 11.5 4.5 5.5 2.5 0.0034965 3.5 480.137 185.718 5.5 10.5 229.5 2.5 348.5 913.788 379.868 147.5 1833.39 894.509 3.5 72.5 1.5 548.5 248480 2959.65 1456.74 3006.77 36.9678 181.568 538.5 6.5 7.5 1921.83 4680.54 2592.05 50.3344 1145.5 1.5 0.0034965 3.5 1.5 4.5 5.5 0.5 14.5138 2781.15 1532.5 268.877 104.092 242.742 1409 299.82 1688 387.342 5.5 53.1737 82.3701 164.848 691.108 1354.2
left_child=-1 11 6 7 39 -6 42 -4 -9 10 13 40 14 24 -10 16 17 -11 19 20 60 -16 26 -13 -7 -25 27 -21 -17 -15 31 -31 34 -34 -28 36 -36 -33 -39 -5 -2 -42 -3 56 -45 46 -26 -48 49 50 58 -52 -51 -50 55 -55 57 -23 -47 -60 -18 -62
right_child=1 2 3 4 5 9 -8 8 12 15 -12 23 -14 29 21 28 18 -19 -20 22 -22 43 -24 25 45 -27 32 -29 -30 30 -32 37 33 -35 35 -37 -38 38 -40 -41 41 -43 -44 44 -46 48 47 -49 53 52 51 -53 -54 54 -56 -57 -58 -59 59 -61 61 -63
leaf_parent=0 40 42 7 39 5 24 6 8 14 17 10 23 12 29 21 28 60 17 18 27 20 57 22 25 46 25 34 27 28 31 30 37 33 33 36 35 36 38 38 39 41 41 42 44 44 58 47 47 53 52 51 51 52 55 54 55 56 57 59 59 61 61
leaf_value=-0.0515986 0.0307705 -0.0622811 0.0438428 -0.0704776 -0.100758 -0.00493659 -0.0693144 -0.0539857 0.00993595 0.00184732 -0.0537123 -0.0670026 -0.0647803 -0.0288098 -0.0546863 0.0144519 0.00757612 -0.0522851 0.0228038 0.00803614 -0.0536606 0.0229809 0.0229415 0.0232356 0.0589691 0.0390453 0.0293126 -0.0498533 0.0347378 -0.0423074 -0.0139987 0.0255716 -0.0771593 0.00662529 -0.00284819 0.0207051 -0.0539935 0.0777409 0.772879 0.0235061 -0.0556226 0.0082533 0.0364293 -0.057086 -0.0106996 0.0354064 -0.0279271 0.0243433 0.0123309 0.0434123 -0.204046 -0.0358611 -0.0953795 -0.285638 -0.0139396 0.047113 0.0167904 -0.0295265 -0.228996 0.0166247 -0.0653548 0.00191834


Tree=29
num_leaves=63
split_feature=0 7 0 0 10 0 1 1 7 2 4 1 0 9 10 0 0 0 1 10 10 9 2 3 7 10 0 9 10 4 10 9 9 1 1 7 0 0 4 7 2 2 2 0 9 9 10 9 9 10 9 10 0 1 9 9 9 2 7 9 9 4
split_gain=632487 100138 65652.4 17850.9 14712.2 10362.5 8243.13 8352.67 8116.66 7507.23 6447.68 5632.6 5510.1 5077.23 4732.72 4366.31 4346.82 6064.66 4273.86 4041.68 3902.1 3683.12 3659.88 3569.71 4028.33 3322.9 3171.02 3057.54 5781.3 3014.01 2980.28 7217.02 3607.84 2482.22 10399 2466.37 2436.97 4800.17 2472.77 2852.98 2422.86 6096.49 2381.49 2324.9 2717.08 2196.09 2089.31 4820.68 2587.3 3574.06 4134.76 2055.79 2527.42 2916.33 3581.96 2931.12 2475.04 2011.61 2093.85 2003.22 1953.95 1940.19
threshold=3846 1.5 8664.5 2209.5 469.054 6320 2.5 3.5 1.5 2.5 0.5 2.5 15493 176.85 1163.48 11077 15682 33209 3.5 480.137 344.147 1.8899 4299 0.5 5.5 5.88169 5519 150.543 352.298 1.5 913.788 56.4028 0.0034965 2.5 3.5 3.5 15853 16992 1.5 204.5 2.5 3.5 2.5 4449 143.82 31.0201 3583.51 2235.7 241.245 845.461 328.019 97.5602 5519 4413 4.73607 33.4932 20.9241 2.5 2.5 2.32327 7.85077 1.5
left_child=3 -2 5 -1 6 14 -4 9 -5 -8 -10 -7 15 16 21 33 22 25 42 27 -15 -3 -9 24 -23 -18 43 59 -29 -16 32 -32 -12 -6 57 -27 45 -38 -39 -40 -14 -42 -13 -25 -45 -37 47 48 -21 50 -50 52 53 54 -26 -56 -53 -35 -59 -20 -24 -33
right_child=1 2 4 8 12 11 7 13 10 -11 30 18 40 20 29 -17 17 -19 19 46 -22 23 60 26 51 35 -28 28 -30 -31 31 61 -34 34 -36 36 37 38 39 -41 41 -43 -44 44 -46 -47 -48 -49 49 -51 -52 56 -54 -55 55 -57 -58 58 -60 -61 -62 -63
leaf_parent=3 1 21 6 8 33 11 9 22 10 9 32 42 40 20 29 15 25 17 59 48 20 24 60 43 54 35 26 28 28 29 31 61 32 57 34 45 37 38 39 39 41 41 42 44 44 45 46 47 50 49 50 56 52 53 55 55 56 58 58 59 60 61
leaf_value=-0.0486388 -0.0516921 0.0598701 0.0393884 -0.0514684 0.0455107 0.0346587 0.0275661 0.0298317 -0.0410129 -0.10642 0.10535 0.0321227 0.0430625 -0.130078 -0.00468546 0.0455817 0.0514963 0.0528004 0.0565955 0.0306402 -0.0110528 -0.0390519 -0.0338999 0.0109099 -0.0457492 -0.0300145 0.0214143 -0.128891 -0.0075208 0.0133836 0.15256 -0.0314939 -0.0308389 0.0227359 0.0322487 0.051047 0.0396478 0.0244768 -7.84766e-05 -0.0408367 -0.0917321 0.0265226 -0.0784636 -0.0520658 -0.00189469 -0.0796757 0.0296731 -0.156281 0.00247342 0.013963 -0.0792505 -0.0449146 -0.0453468 -0.0534358 0.0849794 -0.0416107 -0.0075391 -0.231319 -0.083813 0.00161993 0.0536386 -0.00545318


Tree=30
num_leaves=63
split_feature=0 0 2 2 5 6 0 5 10 6 5 8 9 8 0 2 4 0 0 5 0 8 9 0 8 8 10 6 8 10 9 5 9 6 5 10 9 5 2 10 9 2 4 8 10 9 10 9 2 8 0 0 8 0 0 10 10 8 4 4 9 2
split_gain=552935 68902.4 35472.3 21455.1 21374.4 20652.7 18502.4 16208.3 14646.9 7822.82 7144.29 6513.49 6039.56 6304.12 5746.93 5409.82 6150.24 5371.52 5283.58 4681.25 4607.85 4480.82 5068.15 4333.01 5255.88 4249.44 3706.75 3680.19 3668.53 6975.69 4043.16 3577.93 3216.61 3126.27 3034.04 3020.46 5646.1 3000.63 2816.46 3288.75 3176.42 2811.1 2712.95 2633.28 2431.97 3801.63 2406.69 6619.44 2706.81 2088.04 2080.32 3069.67 2053.75 2039.88 2178.55 1983.06 3605.5 1981.23 1981.01 1970.65 1952.3 1919.96
threshold=3846 8664.5 1.5 1.5 0.211138 248480 2209.5 0.00254669 480.137 248480 0.00254669 20.5 181.102 436.5 15493 1.5 0.5 6422.5 11077 0.335897 33209 3085.5 14.5138 16992 10810 6205 5.88169 4.75141 179.5 405.622 219.314 99782.8 0.0034965 248480 3.00993 913.788 56.4028 99782.8 369 480.137 209.553 3.5 0.5 479 1163.48 480.73 31.8939 6.36978 7018.5 21.5 10296 10378 182.5 8459 8351 6.92246 4.93689 1756 1.5 1.5 371.863 287
left_child=6 3 -3 -2 -4 8 10 33 12 11 58 -9 13 -6 18 -8 -17 21 50 -18 23 22 -13 24 46 38 -25 34 -14 -30 -31 -11 -21 -5 42 52 -37 -7 39 40 -19 -38 -24 49 45 -29 47 48 -15 -41 -10 -52 60 54 61 56 -23 -49 -1 -28 -34 -51
right_child=1 2 4 7 5 37 15 9 14 31 -12 17 28 20 -16 16 19 25 -20 32 -22 55 27 26 -26 -27 59 44 29 30 -32 -33 35 -35 -36 36 41 -39 -40 43 -42 -43 -44 -45 -46 -47 -48 57 -50 53 51 -53 -54 -55 -56 -57 -58 -59 -60 -61 -62 -63
leaf_parent=58 3 2 4 33 13 37 15 11 50 31 10 22 28 48 14 16 19 40 18 32 20 56 42 26 24 25 59 45 29 30 30 31 60 33 34 36 41 37 38 49 40 41 42 43 44 45 46 57 48 61 51 51 52 53 54 55 56 57 58 59 60 61
leaf_value=-0.0396407 -0.0524038 -0.0525278 0.0497136 -0.0237877 0.0429259 -0.0737275 -0.0514519 0.020834 0.0339652 -0.0600392 -0.0490649 0.0557333 0.0259294 0.0552669 0.0229568 -0.0406172 0.0328821 -0.00316533 0.0429627 0.134396 0.0525193 -0.0575495 -0.0292895 0.0557204 -0.0424884 -0.0560449 0.0178862 -0.00698639 -0.151641 0.0105256 -0.124295 0.0549753 0.0185572 0.04176 -0.0634911 0.143181 -0.0413661 0.0430265 0.0471662 -0.195221 -0.0882204 -0.00893957 0.0393016 0.0433374 0.00382798 -0.0615055 0.0224197 0.0233085 -0.0673091 0.0123007 -0.0260729 0.0237688 -0.0413557 -0.0113196 0.0480086 -0.0546219 0.0818978 -0.091435 0.011564 -0.0127796 -0.0433284 -0.0781896


Tree=31
num_leaves=63
split_feature=7 5 8 2 2 5 9 2 2 2 2 8 8 7 2 7 8 8 2 2 7 7 10 9 8 10 9 4 9 3 10 10 9 8 10 9 5 4 9 7 7 9 10 7 7 9 3 10 9 9 8 8 10 10 10 9 10 9 10 9 4 9
split_gain=237195 101327 18072.7 14961.1 32200.3 16787.8 14621.6 13178.7 79011.2 8873.94 65411 7079.31 8718.12 6346.42 5231.06 3630.71 3487.51 5032.12 3180.41 3008.13 2768.52 3152.59 2710.65 12615.3 5074.32 4437.65 12484.7 4229.51 3391.85 4386.1 2844.84 2784.12 8965.17 3597.74 2756.94 4624.41 2608.21 4478.41 2595.65 2515.86 6343.7 3076.13 6157.65 2324.57 2437.25 2285.43 2242.93 2209.52 4116.5 3298.76 2174.61 2364.25 7378.52 5402.73 4691.27 7313.14 4637.31 3306.82 2274.71 5082.1 2140.01 5364.34
threshold=1.5 0.00254669 5.5 3.5 2.5 1979.12 0.0034965 4.5 5.5 6.5 7.5 3.5 4.5 458.5 2.5 2.5 13.5 12.5 1.5 3.5 2.5 3.5 1112.67 471.011 122.5 2459.64 1154.29 0.5 59.4991 0.5 622.893 501.19 185.718 326.5 760.96 328.019 17.5023 0.5 194.319 6.5 7.5 1784.53 3945.85 4.5 5.5 2285.49 0.5 44.008 7.85077 25.3626 557 1409 299.82 53.5108 268.877 101.061 242.742 20.9241 164.848 82.3701 1.5 31.0201
left_child=-1 14 6 4 5 15 -3 36 -9 -10 -11 -8 -13 16 46 -4 17 20 -7 -16 -12 -22 23 27 25 26 -24 28 -18 30 -30 32 47 34 35 -33 37 -5 -32 41 -41 -27 45 -23 -45 -43 60 49 -49 -29 -50 53 -53 -52 55 58 -57 -54 59 -55 61 -2
right_child=1 2 3 7 -6 18 11 8 9 10 13 12 -14 -15 19 -17 22 -19 -20 -21 21 43 24 -25 -26 39 -28 31 29 -31 38 33 -34 -35 -36 -37 -38 -39 -40 40 -42 42 -44 44 -46 -47 -48 48 50 -51 51 52 57 54 -56 56 -58 -59 -60 -61 -62 -63
leaf_parent=0 61 6 15 37 4 18 11 8 9 10 20 12 12 13 19 15 28 17 18 19 21 43 26 23 24 41 26 49 30 29 38 35 32 33 34 35 36 37 38 40 40 45 42 44 44 45 46 48 50 49 53 52 57 59 54 56 56 57 58 59 60 61
leaf_value=-0.051209 -0.0480211 0.0444266 -0.0498466 -0.00182629 -0.0719972 -0.064008 -0.0538196 -0.098682 0.0210531 -0.0942154 0.0180545 -0.00108032 -0.0578463 -0.00926248 -0.100193 0.00614051 0.01307 -0.0674119 0.015994 0.0113713 -0.0570187 0.0180542 0.00560041 -0.0528178 0.0218357 0.0280423 -0.0539523 5.05959e-05 -0.0330772 0.0206076 0.0167412 0.00607692 -0.0459376 0.0296261 0.0182109 -0.0571198 0.017609 0.0480005 -0.0182386 -0.0895387 0.00862317 -0.0123085 0.0185173 -0.0638458 -0.00661889 -0.0699597 0.0494731 -0.0573943 0.00255982 -0.0772974 0.442989 0.0270299 0.0340996 0.00505322 0.0426005 -0.169914 -0.0177568 -0.0553202 0.0344406 -0.219069 0.0452358 0.0338095


Tree=32
num_leaves=63
split_feature=0 7 0 5 0 5 0 8 7 7 7 0 0 0 5 8 4 7 7 8 8 9 9 4 5 8 5 8 0 1 2 4 2 0 2 8 8 4 7 1 2 1 1 2 2 5 5 4 0 7 2 5 9 0 0 8 8 0 0 4 2 5
split_gain=451288 70418.6 52798.8 18846.5 18680.8 12844.5 11905.3 8855.09 7572.46 7458.57 30704.1 7075.93 6159.86 6262.03 6068.28 5875.36 5352.37 4178.22 10251.2 4706.84 3787.89 4102.63 3694.28 4969.57 4459.85 4897.64 3548.29 3545.03 3143.72 3109.87 8262.48 2896.8 2663.79 2576.85 2534.39 2486.97 2459.38 2301.07 2260.87 2222.38 11564.8 2747.75 10613.8 3522.37 12110.9 3517.39 2587.57 2121.48 3184.75 2090.74 2506.75 2544.19 2489.45 2074.84 3152.29 3635.47 2026.11 1951.01 1947.67 2135.46 1918.34 1753.49
threshold=3846 1.5 8664.5 0.00254669 2209.5 0.335897 15493 3085.5 1.5 3.5 2.5 33209 21233 24881 0.00254669 20.5 0.5 3.5 2.5 1909.5 10810 20.9241 25.3626 0.5 1511.52 162.5 5.00309 300.5 11077 11.5 10.5 1.5 17.5 19337 2.5 492.5 230.5 1.5 19.5 9.5 8.5 4.5 5.5 6.5 7.5 10.3794 59.9545 1.5 10296 40.5 14.5 56.1164 88.3563 11077 10695 2585.5 1584 6422.5 28422 1.5 2.5 3.00993
left_child=4 -2 5 -4 14 37 7 9 -6 10 28 12 29 31 -1 -7 -10 18 -17 22 21 -9 -19 24 25 38 -18 32 47 30 36 -14 -28 -31 -20 -30 -8 -3 -24 40 41 -25 -43 -44 57 -46 -41 -5 -49 50 51 -27 -51 54 -11 -56 -48 -45 -15 -60 -12 -21
right_child=1 2 3 6 8 15 11 20 16 53 60 -13 13 58 -16 17 26 19 34 61 -22 -23 23 39 -26 49 27 -29 35 33 -32 -33 -34 -35 -36 -37 -38 -39 -40 46 -42 42 43 44 45 -47 56 48 -50 52 -52 -53 -54 -55 55 -57 -58 -59 59 -61 -62 -63
leaf_parent=14 1 37 3 47 8 15 36 21 16 54 60 11 31 58 14 18 26 22 34 61 20 21 38 41 24 51 32 27 35 33 30 31 32 33 34 35 36 37 38 46 40 42 43 57 45 45 56 48 48 52 50 51 52 53 55 55 56 57 59 59 60 61
leaf_value=-0.00612368 -0.0513406 0.0182028 0.0494889 0.0326662 -0.0511014 0.019346 0.0208622 0.017297 -0.0377752 0.0369317 0.000491809 0.0526205 0.0148034 0.0544058 -0.0483898 -0.00255978 0.020905 0.0523423 0.0222626 0.0217949 -0.0538501 -0.0568341 -0.0125687 0.0250167 0.0209912 -0.0433389 -0.0169528 -0.0381109 0.0412927 0.018973 -0.193202 -0.051261 0.00747733 0.0474535 -0.062986 0.00799015 -0.000573265 0.0454078 0.0240889 0.0342469 -0.163738 -0.113414 0.0242055 -0.101383 -0.0443254 0.0243026 0.0119232 0.0227661 -0.0181245 -0.0536927 -0.0659589 0.0334573 0.016713 0.0422903 0.0167239 -0.118145 -0.0709643 -0.218713 0.0528275 -0.0217983 -0.0937596 -0.0243202


Tree=33
num_leaves=63
split_feature=0 7 0 0 10 0 9 0 10 8 7 0 8 6 8 8 6 7 2 8 2 6 8 0 9 6 9 9 8 8 0 1 10 9 8 7 0 0 8 10 9 9 1 1 9 10 9 8 10 9 7 7 0 0 7 8 0 0 0 10 9 10
split_gain=395457 63807.8 52303 12832.7 12647.8 7669.13 6848.16 6150.91 6054.32 8626.47 5711.93 5480.5 5124.65 4784.23 5127.74 4584.52 4093.75 4074.12 5052.47 4950.98 4113.9 3980.58 3735.92 3299.54 3162.89 3150.71 3127.55 3069.32 3019.45 2993.64 2987.06 2778.2 3207.81 4083.4 2913.13 2713.18 2565.01 2525.88 2516.93 2510.45 2501.39 3565.11 2481.88 7359.85 2392.7 2301.23 3442.12 3032.55 2993.63 4085.5 2275.44 32028.6 2253.09 2238.55 2875.97 4033.49 4241.3 2163.8 4282.65 2152.42 2127.2 2595.45
threshold=3572.5 1.5 8664.5 2209.5 424.358 6320 161.34 15493 335.408 384.5 1.5 11077 3085.5 159019 492.5 6205 4.04317 3.5 2.5 2489 3.5 159019 3739 15853 23.1736 197.325 12.061 3.026 250.5 2762 16187 375.5 3200.47 1784.53 20.5 3.5 821.5 2392.5 2007 156.98 14.5138 19.2159 2.5 3.5 308.408 491.316 236.432 348.5 845.461 328.019 5.5 4.5 2490 1470.5 1.5 44.5 1169.5 33209 21233 685.332 40.8168 233.391
left_child=3 -2 5 36 6 12 13 11 9 -8 -5 22 16 14 -4 21 -3 18 -16 -19 -20 31 42 38 26 37 27 -21 44 39 -25 32 33 34 -7 -11 -1 -12 -9 -28 -18 -42 -6 -44 -27 46 -36 48 49 -47 51 -45 -46 54 -38 56 -56 58 -32 -51 -22 -62
right_child=1 2 4 10 7 15 8 23 -10 35 25 -13 -14 -15 17 -17 40 19 20 24 60 -23 -24 30 -26 28 29 -29 -30 -31 57 -33 -34 -35 45 -37 53 -39 -40 -41 41 -43 43 50 52 47 -48 -49 -50 59 -52 -53 -54 -55 55 -57 -58 -59 -60 -61 61 -63
leaf_parent=36 1 16 14 10 42 34 9 38 8 35 37 11 12 13 18 15 40 19 20 27 60 21 22 30 24 44 39 27 28 29 58 31 32 33 46 35 54 37 38 39 41 41 43 51 52 49 46 47 48 59 50 51 52 53 56 55 56 57 58 59 61 61
leaf_value=-0.0496597 -0.0511993 -0.0268473 0.0402926 -0.0509966 0.0428808 0.0391677 -0.0001563 0.0014345 -0.00473989 -0.142401 0.0206578 0.0430369 -0.0410295 0.0378273 0.0229592 -0.0549905 0.032501 0.0272448 -0.0993928 0.0307641 0.0231554 0.0342253 -0.0930839 0.0509546 -0.0270604 0.030449 0.0581641 -0.00899001 -0.0365464 0.0445651 0.025084 0.0465746 0.0235919 -0.101179 -0.00509205 -0.321038 -0.0509667 -0.037034 -0.127647 -0.130528 -0.0666452 0.00131502 -0.0948529 0.0238745 -0.0398213 -0.00192653 -0.116466 0.0321387 0.00918365 -0.15046 0.0352888 -0.387175 -0.00491166 -0.0487289 -0.0262711 -0.0386949 0.0291331 0.0524128 -0.0124052 -0.0471136 -0.0697813 -0.00755684


Tree=34
num_leaves=63
split_feature=0 7 0 5 10 0 5 7 4 7 0 0 0 0 8 8 8 10 0 8 0 7 8 7 7 8 0 0 7 8 5 7 0 2 5 10 10 10 10 8 8 0 1 0 4 8 8 4 4 5 10 0 0 8 0 0 5 8 10 5 2 10
split_gain=345247 55843.8 47065.9 19052.8 13216.7 13190.8 11497.9 7848.16 7305.63 6160.54 6060.76 5716.85 5391.6 5737.29 5697.4 5076.45 4919.98 4687.95 4026.59 3638.74 3528.12 3302.06 3148.85 3123.53 7030.52 3265.19 3108.33 3174.57 2956.71 2941.52 3253.83 2905.76 2718.62 2689.38 2686.53 2647.35 2582.42 2749.83 2422.96 3266.24 3133.87 3193.77 2431.14 2761.86 2407.34 2302.41 3587.16 4010.19 2243.9 4970.67 2505.82 2179.43 3437.19 2131.53 3368.22 2104.15 2096.71 2079.46 2453.92 2022.88 1973.22 1958.69
threshold=3572.5 1.5 8749 0.00254669 424.358 1169.5 0.211138 1.5 1.5 3.5 15493 11077 1399 2560.5 78.5 22.5 2489 8.6904 6422.5 2878.5 24881 9.5 6205 3.5 2.5 3739 15853 16187 384.5 266.5 5.00309 8.5 33209 9.5 0.00254669 480.137 6.92246 4.93689 4.93689 11468.5 3739 11589 32.5 24881 1.5 1409 2115.5 0.5 0.5 1441.36 415.913 33209 21233 8526 11277 16260 9.6146 348.5 845.461 5.00309 25.5 44.008
left_child=5 -2 6 -4 9 34 44 -7 -9 17 11 23 14 59 33 -8 -11 -5 19 21 -19 31 28 24 -6 -25 -12 -28 35 60 -31 48 38 -10 -1 -20 37 -21 -18 40 61 53 43 -41 45 -3 47 -47 49 -17 -50 52 55 54 -42 -29 -23 58 -37 -14 -15 -40
right_child=1 2 3 4 10 7 15 8 12 16 26 -13 13 29 -16 18 32 20 22 36 -22 56 -24 25 -26 -27 27 51 -30 30 -32 -33 -34 -35 -36 57 -38 -39 39 42 41 -43 -44 -45 -46 46 -48 -49 50 -51 -52 -53 -54 -55 -56 -57 -58 -59 -60 -61 -62 -63
leaf_parent=34 1 45 3 17 24 7 15 8 33 16 26 11 59 60 14 49 38 20 35 37 20 56 22 25 24 25 27 55 28 30 30 31 32 33 34 58 36 37 61 43 54 41 42 43 44 47 46 47 50 49 50 51 52 53 54 55 56 57 58 59 60 61
leaf_value=-0.0129114 -0.0510835 0.0224487 0.0489829 0.0443258 0.0182535 -0.0508896 0.0161648 -0.0394543 0.0369042 0.02521 -0.009572 0.0400584 0.00803023 -0.00463128 -0.0171554 -0.0343092 0.0442627 -0.0240226 -0.00727216 -0.039652 0.0451719 0.0336636 -0.0547461 0.0315024 -0.0659345 -0.0863398 0.0503739 -0.0173934 0.0532463 0.0464282 -0.043581 -0.0868853 0.0518678 0.123384 -0.0491143 -0.0174716 -0.053639 0.0814363 -0.0780299 -0.0581613 0.0425383 0.0275619 -0.0541464 0.0519118 0.0448543 0.0505992 0.0214996 -0.290906 -0.0303839 0.0191147 -0.00105006 0.0524963 -0.014955 -0.0574585 -0.0959165 0.0224465 0.00224978 0.030005 0.0106742 -0.0403118 0.0286439 -0.010936


Tree=35
num_leaves=63
split_feature=2 5 6 8 9 8 8 6 6 5 9 10 10 9 5 10 9 10 9 3 10 9 9 10 10 10 9 8 8 9 10 3 10 10 8 8 8 10 10 10 9 10 9 8 9 9 8 8 10 8 10 9 10 8 9 10 8 10 9 2 10 9
split_gain=108592 73093.7 27399.1 20224.5 13196.6 7815.48 7706.45 6449.12 5905.2 23110.2 4675.22 15490.2 6469.21 17297.4 4379.52 4159.24 17548.6 4715.25 11603.5 5977.68 3955.57 5239.05 3690.99 7944.04 3641.8 3270.3 15939.3 5052.85 5036.47 3225.55 7025.08 3092.71 3056.52 2759.51 3534.13 2683.24 2643.96 2624.15 2415.3 2375.55 2976.93 2370.15 5467.62 2967.04 2311.65 6278.41 5989.89 3226.49 3121.15 4522.45 5331.2 10101.1 4286.51 4244.84 3742.97 2742.92 2491.87 2324.05 2277.03 2271.62 2133.45 2106.57
threshold=1.5 0.00254669 248480 5.5 0.0034965 3.5 4.5 248480 4.75141 3.00993 1971.35 4224.91 2636.58 1154.29 99782.8 1463.11 622.025 913.788 349.039 0.5 480.137 153.734 3657.17 6850.02 2104.37 335.408 130.958 442.5 162.5 143.82 277.993 0.5 698.377 405.622 304.5 110.5 194.5 1180.49 5463.38 3200.47 2592.05 542.63 253.12 246.5 2.32327 11.0044 20207 1634 44.008 1055 242.742 91.2357 319.061 636.5 28.1055 208.113 750.5 73.7003 462.26 3.5 1858.31 5479.57
left_child=-1 7 3 4 -3 -6 -7 59 9 60 12 39 13 15 -4 16 17 18 19 20 21 -10 38 -24 -15 26 44 41 -28 30 -30 -9 -20 34 -23 -17 -19 -18 -13 -12 -41 42 -27 -44 -21 46 47 -46 54 50 51 -50 -51 -53 -47 -55 -57 -49 -34 -2 -5 -25
right_child=1 2 14 8 5 6 -8 31 10 -11 11 22 -14 24 -16 35 37 36 32 25 -22 33 23 61 -26 27 28 -29 29 -31 -32 -33 58 -35 -36 -37 -38 -39 -40 40 -42 -43 43 -45 45 48 -48 57 49 52 -52 53 -54 55 -56 56 -58 -59 -60 -61 -62 -63
leaf_parent=0 59 4 14 60 5 6 6 31 21 9 39 38 12 24 14 35 37 36 32 44 20 34 23 61 24 42 28 27 30 29 30 31 58 33 34 35 36 37 38 40 40 41 43 43 47 54 46 57 51 52 50 53 52 55 54 56 56 57 58 59 60 61
leaf_value=-0.0510962 -0.0847698 0.0453687 -0.0579227 -0.00130888 -0.0527585 0.000710508 -0.0584523 0.0289911 -0.00343825 -0.0612107 -0.0662244 -0.00134763 0.0162753 -0.0665004 0.0319827 0.00658311 -0.0706555 0.00659138 -0.0698329 0.0504891 0.00833612 -0.0214466 -0.046882 0.0159691 -0.0243431 0.00615344 -0.0125365 0.0357936 -0.176987 -0.143217 0.0457962 0.0478592 -0.011984 -0.0139956 -0.0982742 0.0208776 0.0228704 -0.0312026 0.0209287 -0.0137841 -0.0607256 0.0168793 -0.00703982 -0.1238 0.00734084 0.013029 0.0529488 -0.0554502 0.0139585 0.0410875 0.0310829 -0.0194417 -0.177736 -0.184289 -0.0759138 -0.241095 -0.0299638 -0.150251 -0.0597185 0.00248594 0.0213901 -0.0076702


Tree=36
num_leaves=63
split_feature=0 0 5 6 0 2 0 5 0 6 5 2 4 10 0 3 0 0 6 5 4 0 0 0 10 9 10 9 10 9 5 9 10 3 4 9 10 10 5 9 0 4 10 9 9 9 2 0 0 3 10 0 0 2 2 4 6 10 5 6 2 10
split_gain=282466 44692.4 20399.8 27545.4 13248.5 11921.1 10482 8195.46 6219.1 5690.78 5208.62 5528.11 6627.64 5035.03 5001.35 4866.98 4196.22 5748.5 4158.98 9377.57 4393.05 3685.41 5459.93 3299.3 3093.15 6834.98 2946.25 4079.12 2880.25 2841.61 2807.3 2791.63 2904.15 2779.53 2469.74 2436.64 2946.95 2401.97 2396.34 2366.48 4814.17 2254.99 2100.66 2916.2 2069.77 2698.86 2575.5 1960.32 2392.1 2154.25 1946.34 1895.28 2035.96 1763.73 16044.5 3349.05 4408.17 4824.33 3391.45 4123.11 2769.75 2416.02
threshold=3572.5 8664.5 0.00254669 248480 1169.5 1.5 15493 0.00254669 33209 248480 0.00254669 3.5 1.5 451.093 11077 0.5 20454 19337 7.06775 4.63233 0.5 1399 2209.5 24881 3353.55 1784.53 501.19 23.1736 53.5108 194.319 99782.8 2.32327 3.52106 0.5 1.5 23.1736 2908.62 1783.54 0.00254669 113.822 2392.5 1.5 913.788 38.2699 10.0585 3.026 7018.5 17418 16260 0.5 277.993 10695 10868 4.5 5.5 0.5 2781.15 137.892 72.6333 141.63 1219 225.885
left_child=4 5 -3 6 38 -2 13 15 16 18 -6 -12 -13 29 51 34 17 26 19 20 35 37 -23 41 25 31 27 -8 -29 44 -11 -20 -33 42 -7 -9 -37 -14 -1 40 -35 50 -24 -44 45 46 -4 48 49 -30 -18 -15 -53 -34 -55 56 57 -56 60 -60 -57 -62
right_child=1 2 3 -5 10 7 8 9 -10 30 11 12 21 14 -16 -17 23 -19 24 -21 -22 22 33 -25 -26 -27 -28 28 47 -31 -32 32 53 39 -36 36 -38 -39 -40 -41 -42 -43 43 -45 -46 -47 -48 -49 -50 -51 -52 52 -54 54 55 58 -58 -59 59 -61 61 -63
leaf_parent=38 5 2 46 3 10 34 27 35 8 30 11 12 37 51 14 15 50 17 31 19 20 22 42 23 24 25 26 28 49 29 30 32 53 40 34 36 36 37 38 39 40 41 43 43 44 45 46 47 48 49 50 52 52 54 57 60 56 57 59 59 61 61
leaf_value=-0.0144176 -0.0522755 0.0483551 0.0498084 -0.0554719 0.0131671 -0.0265484 0.0225911 0.0671323 0.0519963 -0.0579145 -0.0476163 -0.0404133 -0.00523806 0.0262191 0.0384305 0.0460819 -0.0623654 0.0462481 0.0547958 -0.0590338 0.0275726 -0.0449338 -0.0378717 0.0194125 0.0137713 -0.0647184 0.015426 -0.0718495 -0.0443372 -0.0445024 0.0501911 -0.0702374 0.0117507 0.274571 0.0298883 -0.0353289 0.0180194 0.0570458 -0.0486016 0.00399743 0.0151829 -0.0338085 0.140299 -0.0108602 0.0228594 -0.0108276 -0.0519778 -0.0299574 0.0224818 0.00807311 0.0249089 -0.00763857 0.028576 -0.0979437 0.0339017 0.0281089 0.0116633 -0.0295396 -0.0733595 0.0030138 0.01442 -0.0489242


Tree=37
num_leaves=63
split_feature=0 7 0 5 0 6 0 5 7 4 8 0 6 6 8 0 0 0 8 8 5 0 0 0 0 8 7 7 7 7 0 8 1 0 0 6 0 5 4 8 5 8 8 1 0 0 0 7 7 5 5 7 7 0 2 0 0 0 0 0 8 7
split_gain=246237 40376.9 36604.9 17237.7 13422.1 11944.7 9355.1 7633.71 7412.46 6396.32 5975.96 5559.49 5085.56 5173.16 4684.53 5122.14 5465.85 4174.46 4126.17 4082 3544.45 3466.11 4809.95 3340.78 5003.63 3169.85 3612.65 24115.5 4578.42 12719.6 3102.37 2722.87 2751.17 2579.69 2671.47 2560.57 2556.76 2553.19 2543.44 2528.65 2488.32 2361.88 2344.59 2263.92 2806.28 2446.51 4327.99 2314.7 7397.83 2244.06 2211.32 2172.47 12606.5 2118.32 2117.71 2063.42 2065.66 3553.69 3091.04 4111.12 2246.77 2118.64
threshold=3572.5 1.5 8749 0.00254669 1169.5 248480 15493 0.335897 1.5 1.5 10810 33209 2.22748 248480 172.5 1470.5 2490 11345 14.5 15.5 5.00309 10695 10868 20454 19337 1815 5.5 4.5 3.5 2.5 11277 422.5 15.5 3408.5 3301.5 0.530983 24881 99782.8 0.5 5833 0.00254669 36.5 1584 2325 18057 15853 16037 494.5 567.5 1.34766 99782.8 5.5 4.5 3209 4.5 17690 17418 17188 16838 16260 1055 3.5
left_child=4 -2 7 -4 40 6 10 35 -6 -10 17 23 49 18 15 -11 -17 21 -14 -20 -16 39 -23 24 41 26 27 28 29 -21 -24 -19 -33 34 53 -3 -25 -15 42 51 -1 -8 -28 44 45 -43 -47 -46 -49 -9 -7 52 -5 -18 -54 56 57 58 59 61 -58 -48
right_child=1 2 3 5 8 50 11 12 9 14 -12 -13 13 37 20 16 33 31 19 25 -22 22 30 36 -26 -27 38 -29 -30 -31 -32 32 -34 -35 -36 -37 -38 -39 -40 -41 -42 43 -44 -45 47 46 55 48 -50 -51 -52 -53 54 -55 -56 -57 60 -59 -60 -61 -62 -63
leaf_parent=40 1 35 3 52 8 50 41 49 9 15 10 11 18 37 20 16 53 31 19 29 20 22 30 36 24 25 42 27 28 29 30 32 32 33 34 35 36 37 38 39 40 45 42 43 47 46 61 48 48 49 50 51 54 53 54 55 60 57 58 59 60 61
leaf_value=-0.0131374 -0.050913 -0.0114006 0.048133 0.0221952 -0.050701 -0.0708292 0.0293527 -0.0141661 -0.0370191 0.0394374 -0.0530996 0.0518081 0.0203602 -0.0577728 0.0262167 -0.0377007 0.00928462 0.0382569 -0.129292 0.00321672 -0.0363113 -0.0154281 0.0346333 -0.0196649 0.0450917 -0.0174096 -0.00396577 -0.0985321 0.0152021 -0.0573528 -0.0259917 0.0103629 0.0350773 -0.0321635 0.0538437 0.0349877 0.0181889 0.0482622 0.0135145 -0.0454359 -0.0482157 -0.0134465 0.080518 0.0547047 -0.0110448 0.0531166 -0.053126 -0.610442 -0.0505942 -0.065939 0.0398671 0.0353336 0.00333061 -0.0412119 -0.263938 0.042866 -0.00399156 0.0532514 -0.0203814 0.0311968 -0.0825805 0.00362273


Tree=38
num_leaves=63
split_feature=0 0 5 6 0 2 10 3 5 9 10 5 9 6 2 1 2 10 9 9 9 5 6 1 2 10 9 0 2 6 0 0 1 3 10 0 9 10 9 10 9 9 9 9 10 9 9 6 5 0 6 9 0 0 0 10 0 6 0 0 9 0
split_gain=214589 38232.6 21680.1 22163.3 10188.4 9586.31 8585.91 5474.06 6676.92 5218.66 5540.75 4885.88 5496.77 4671.1 4530.1 4275.09 21088.2 3404.05 3996.84 3118.68 3775.83 3021.63 10261.9 3000.09 7292.46 2906.11 7993.35 2888.85 2566.43 2348.64 2416.99 2186.16 2074.06 2059.05 4372.73 2851.33 2387.78 2556.6 2038.85 1955.44 4240.17 1934.48 1925.91 1814.81 5157.47 1778.58 1770.65 1732.18 2303.09 1729.56 2021.5 2122.2 2318.13 1826.04 4265.94 3169.61 1719.63 2507.66 1830.65 1930.96 1867.62 2898.57
threshold=3301.5 8007 0.00254669 248480 821.5 1.5 480.137 0.5 3.42905 161.34 344.147 0.00254669 0.0034965 5.96584 3.5 17.5 16.5 845.461 3.026 3.026 7.85077 17.5023 25.4619 9.5 8.5 260.832 104.092 6736.5 118.5 248480 3408.5 3572.5 3.5 0.5 53.5108 19872 91.2357 182.314 56.4028 3475.16 1870.11 402.737 219.314 277.238 698.377 150.543 23.1736 7.06775 4.63233 15493 42.1757 23.1736 15853 13921 13869 172.849 2490 197.325 1470.5 1169.5 25.3626 2299.5
left_child=4 5 -3 6 -1 -2 9 17 -9 19 -11 -6 -13 -10 -14 16 21 18 -7 -4 -21 32 -23 24 25 26 33 38 56 30 -15 -32 -8 46 35 -35 -36 -38 -19 40 43 -20 -12 -24 -45 -17 -22 48 -40 53 -51 -52 -53 54 -25 -56 58 -58 59 -16 61 -60
right_child=1 2 3 -5 11 7 15 8 13 10 42 12 14 29 28 45 -18 27 41 20 23 22 39 49 -26 -27 -28 -29 -30 -31 31 -33 -34 34 36 -37 37 -39 47 -41 -42 -43 -44 44 -46 -47 -48 -49 -50 50 51 52 -54 -55 55 -57 57 -59 60 -61 -62 -63
leaf_parent=4 5 2 19 3 11 18 32 8 13 10 42 12 14 30 59 45 16 38 41 20 46 22 43 54 24 25 26 27 28 29 31 31 32 35 36 35 37 37 48 39 40 41 42 44 44 45 46 47 48 50 51 52 52 53 55 55 57 57 61 59 60 61
leaf_value=-0.048099 -0.0521003 0.0477223 0.0392456 -0.0526952 0.0100449 0.052231 -0.074598 0.0401354 -0.0641664 -0.0921873 0.00403198 0.153174 -0.0479948 0.0703688 -0.0329521 0.0466911 -0.388808 0.0790562 -0.0143221 -0.0127756 0.030858 -0.147023 0.0266746 0.0236311 -0.158401 0.0220385 -0.111335 0.0148951 -0.0431694 -0.0397482 -0.0413849 0.00754969 0.0380498 -0.0498592 0.0382525 0.059733 -0.18979 0.00569647 -0.00822745 0.0282581 -0.0729893 -0.0680836 -0.0539988 -0.0542125 0.0139379 0.0286386 -0.0292775 -0.00170247 -0.0551936 -0.0309801 0.0496817 -0.0566276 0.0130073 0.0492654 -0.451399 -0.0768776 -0.0307417 -0.00231369 -0.0466619 -0.00107962 -0.0423555 0.180313


Tree=39
num_leaves=63
split_feature=2 5 6 8 9 6 2 2 2 2 2 2 5 6 5 2 2 2 2 2 2 2 2 2 2 2 2 2 2 6 5 6 4 9 8 2 5 6 10 9 9 8 5 6 2 2 2 2 6 5 2 1 1 8 8 10 8 4 6 5 6 5
split_gain=72454.5 45345.4 17630.3 12329.2 14548.1 5741.51 4203.09 36114.9 9288.52 59542.6 6590.71 51172 3919.61 3394.28 8935.82 5630.13 43603 5356.01 35633.2 5307.03 30251.7 3877.56 23667.9 3836.37 19939.6 3725.03 16863.7 3658.88 14480.3 2767.55 2710.33 9209.33 3532.4 2493.66 2261.39 2254.25 2077.09 3253.28 2062.21 4950.59 3110.79 1977.79 1951.38 4942.78 1940.1 4509.81 2137.62 3924.08 2149.52 1931.98 1918.9 1797.67 1905.62 1779.58 1651.72 1560.44 1493.1 1464.73 2102.05 1951 1414.04 1406.39
threshold=1.5 0.00254669 248480 3.5 0.0034965 248480 2.5 3.5 4.5 5.5 6.5 7.5 99782.8 9.1375 6.81667 8.5 9.5 10.5 11.5 12.5 13.5 14.5 15.5 16.5 17.5 18.5 19.5 20.5 21.5 3006.77 17.5023 28.9007 0.5 7.85077 48.5 70.5 10.3794 181.568 31.8939 11.0044 12.061 48.5 36.4831 59.6989 22.5 23.5 24.5 25.5 36.9678 25.3923 3.5 4413 4286 26.5 54.5 97.5602 32.5 1.5 2.22748 1.57359 47.1637 72.6333
left_child=-1 5 3 4 -3 50 -5 -8 30 56 -11 -12 -4 14 33 -15 34 -18 53 -20 41 -22 54 -24 -25 -26 -27 -28 -29 36 32 -32 -9 55 -17 57 37 60 39 -7 -41 -21 -33 -44 -38 -46 -47 -48 49 -49 -2 52 -50 -19 -23 -13 -10 -35 59 -59 -30 -45
right_child=1 2 12 6 -6 38 7 8 9 10 11 13 -14 15 -16 16 17 18 19 20 21 22 23 24 25 26 27 28 29 -31 31 42 -34 35 -36 -37 44 -39 -40 40 -42 -43 43 61 45 46 47 48 51 -51 -52 -53 -54 -55 -56 -57 -58 58 -60 -61 -62 -63
leaf_parent=0 50 4 12 6 4 39 7 32 56 10 11 55 12 15 14 34 17 53 19 41 21 54 23 24 25 26 27 28 60 29 31 42 32 57 34 35 44 37 38 40 40 41 43 61 45 46 47 49 52 49 50 51 52 53 54 55 56 59 58 59 60 61
leaf_value=-0.0509193 -0.0874449 0.0466161 -0.0558426 0.0166088 -0.0530607 0.0307115 -0.0698588 -0.00266105 -0.0721824 0.0173622 -0.0945805 -0.00991686 0.032166 0.0211122 -0.0641969 -0.0767786 0.0234553 -0.0699433 0.0256271 -0.0772258 0.0251885 -0.0776857 0.026477 -0.102769 0.0282379 -0.106418 0.0300096 -0.108952 0.0113433 0.0110872 -0.0878938 0.0497471 0.0454159 -0.00817725 -0.125558 0.024674 0.0287476 -0.0496043 0.0420699 -0.297216 -0.0536854 -0.134295 -0.103337 0.0445594 -0.106458 0.0315996 -0.103799 -0.0185505 -0.000192321 -0.0942927 -0.00162398 -0.0440008 0.0778368 -0.120443 -0.136208 -0.0583933 -0.104281 0.0392724 0.0327965 -0.0689293 0.0381262 0.0135992


Tree=40
num_leaves=63
split_feature=0 0 5 6 7 0 0 7 5 0 8 7 7 6 7 8 6 8 3 8 8 5 0 0 2 8 5 7 7 7 7 2 5 0 8 0 0 1 8 0 5 8 1 0 0 0 7 0 8 8 0 8 7 7 0 3 8 0 8 8 8 0
split_gain=172619 31910.6 16713 16013.4 12951.5 10416.6 8094.22 6337.39 5717.68 5315.73 4574.03 5067.72 21147.4 4289.7 3963.02 3858.46 3833.38 3874.82 3774.75 3672.34 3124.3 2923.94 2700.32 3046.95 2380.66 2378.33 3034.17 2562.75 17012.6 3425.74 8980.25 2660.92 2318.22 2222.54 2779.66 2212.44 2640.23 2118.22 2110.3 1995.69 1892.59 1869.04 2071.52 2037.75 1848.14 4168.84 2019.54 1837.14 1796.22 1816.35 1735.32 1813.22 2769.48 1760.08 1723.68 1721.4 1703.09 1702.66 2127.78 1690.71 1686.67 2166.75
threshold=3301.5 8749 0.00254669 248480 1.5 821.5 15493 1.5 0.335897 33209 10810 3.5 2.5 2.22748 1.5 74.5 248480 20.5 0.5 2489 21.5 0.00254669 21233 24881 2.5 4487 3.00993 5.5 4.5 3.5 2.5 2.5 99782.8 12983 4487 19337 20454 17.5 126.5 11077 1.34766 36.5 2325 18057 15853 16037 3.5 16260 2762 3320 6320 2878.5 4304.5 384.5 10296 0.5 14400.5 10795 5833 2251.5 5319 16992
left_child=5 4 -3 6 -2 -1 10 -7 18 22 11 12 14 40 -4 -9 17 -15 38 -13 -19 -17 35 -24 -14 27 -27 28 29 30 -22 -32 -18 34 -21 41 56 -35 -6 54 -10 -8 43 44 -43 -46 47 55 -48 -50 51 -29 -53 -52 -16 -47 -37 58 -36 -40 -51 -62
right_child=1 2 3 -5 8 7 9 15 13 -11 -12 19 24 16 39 21 32 20 -20 33 25 -23 23 -25 -26 26 -28 50 -30 -31 31 -33 -34 37 57 36 -38 -39 59 -41 -42 42 -44 -45 45 46 48 -49 49 60 53 52 -54 -55 -56 -57 -58 -59 -60 -61 61 -63
leaf_parent=5 4 2 14 3 38 7 41 15 40 9 10 19 24 17 54 21 32 20 18 34 30 21 23 23 24 26 26 51 28 29 31 31 32 37 58 56 36 37 59 39 40 44 42 43 45 55 48 47 49 60 53 52 52 53 54 55 56 57 58 59 61 61
leaf_value=-0.0475086 -0.0506621 0.0469405 -0.0517578 -0.0513713 0.0295824 -0.0505647 0.0250768 -0.0106822 -0.0139237 0.0515489 -0.05265 0.0317938 0.00589542 0.0157575 0.0245295 0.0186546 -0.0556155 -0.112829 0.0431251 -0.039939 0.000497359 -0.0339492 -0.0290058 0.0161451 -0.0880713 0.0324725 -0.0544171 0.00216792 -0.084622 0.0113088 0.0386957 -0.058988 0.0478031 -0.0107214 0.0544814 0.0477299 -0.000885794 0.0520638 -0.026919 0.0320255 -0.0615602 -0.0136389 0.0539866 -0.0149067 0.0526094 -0.0711662 0.0169838 -0.0013189 -0.0723851 0.0568755 0.010113 -0.051145 0.0427062 0.0593124 -0.00240045 0.0132325 -0.0576688 0.0379161 -0.0502543 0.0530465 0.056995 -0.0674911


Tree=41
num_leaves=63
split_feature=7 5 7 7 7 7 7 7 2 3 1 2 5 10 9 9 7 7 7 7 7 7 2 7 7 8 5 2 2 8 10 9 10 8 8 9 8 7 7 10 7 7 7 7 1 9 2 2 10 8 2 5 2 8 8 2 2 8 5 8 9 10
split_gain=86275.3 35048.6 7963.49 39608.2 7870.45 61532 7381.43 37220.9 5955.71 5400.41 5398.99 16283.7 10652.2 4193.4 5600.77 3974.52 3732.9 11667.9 3708.56 17841.6 4083.59 25945 3312.75 2831.85 9178.53 2594.98 2585.8 2539.36 8478.08 2062.75 2020.06 3706.9 3618.48 2036.82 3477.52 2223.12 2004.6 1865.9 8993.3 1755.87 1671.43 7602.07 1940.96 7464.84 1640.64 1613.72 1579.79 14992.9 1530.9 1502.78 1474.96 1472.33 1436.23 1409.02 1495.16 1387.35 11308.5 1300.92 1653.44 1194.83 1184.16 2983.42
threshold=1.5 0.00254669 3.5 2.5 4.5 5.5 6.5 7.5 2.5 0.5 3.5 2.5 1313.24 1146.16 520.028 0.0034965 12.5 13.5 11.5 10.5 9.5 8.5 4.5 14.5 15.5 3.5 59.9545 4.5 5.5 11468.5 299.82 104.092 252.715 3498.5 1532.5 11.0044 46.5 16.5 17.5 4.93689 18.5 19.5 20.5 21.5 2.5 31.0201 4.5 5.5 2.15007 5.5 1.5 227.858 6.5 3.5 138.5 6.5 7.5 140.5 3.79891 492.5 17.5312 147.086
left_child=-1 9 3 10 -4 22 -7 52 50 30 11 12 -3 14 15 -12 18 -18 19 20 21 26 -6 -19 -25 -15 57 -17 -29 37 31 33 59 34 -2 -36 -24 -26 -39 -31 -40 -42 -43 -44 -32 60 -27 -48 -45 -11 -5 -38 -8 -30 -55 -49 -57 58 -9 -33 -37 -62
right_child=1 2 4 8 5 6 7 16 -10 49 13 -13 -14 25 -16 27 17 23 -20 -21 -22 -23 36 24 29 46 -28 28 53 39 44 32 -34 -35 35 45 51 38 40 -41 41 42 43 48 -46 -47 47 55 -50 -51 -52 -53 -54 54 -56 56 -58 -59 -60 -61 61 -63
leaf_parent=0 34 12 4 50 22 6 52 58 8 49 15 11 12 25 14 27 17 23 18 19 20 21 36 24 37 46 26 28 53 39 44 59 32 33 35 60 51 38 40 39 41 42 43 48 44 45 47 55 48 49 50 51 52 54 54 56 56 57 58 59 61 61
leaf_value=-0.0505141 0.011071 -0.0487865 0.0151683 -0.0587997 -0.00630223 0.0192299 -0.0100721 0.0417858 -0.0606533 0.00701931 0.052475 -0.0820296 0.0106065 -0.0665206 -0.0568827 0.0143094 -0.100066 0.0247017 0.0311855 -0.0987173 0.0287775 -0.0988753 -0.0757802 -0.0974004 0.0220662 0.0249781 0.0242471 -0.120696 -0.0566497 0.0518535 0.0310163 -0.0610332 -0.0189349 0.0364084 0.0511541 -0.131513 -0.0886709 -0.104966 0.0243706 -0.0406497 -0.101999 0.0280798 -0.116671 -0.041556 -0.0140806 0.0252436 -0.10722 0.0281524 0.0030803 0.0466796 0.033144 -0.128328 -0.0996615 0.0291339 -0.00748687 -0.110209 0.0145668 0.0185933 -0.0202305 -0.415106 0.0307098 -0.455215


Tree=42
num_leaves=63
split_feature=0 0 5 6 0 7 0 7 4 8 0 5 0 0 8 7 7 6 8 8 7 0 8 8 6 4 4 6 5 6 8 7 7 7 5 8 7 7 4 8 0 0 0 0 0 9 0 4 9 8 0 0 4 0 8 8 1 7 5 0 1 0
split_gain=139696 26352 14687.2 12600.3 10485.1 10466.9 6970.45 5856.21 6219.7 5438.17 4860.92 4328.06 3823.65 5130.14 3798.24 5040.46 13605.1 3470.15 3112.05 3762.76 2854.47 2823.16 5704.71 3289.27 2598.92 2586.02 2309.92 5939.68 4285.54 7404.12 3885.52 3875.61 9973.02 2812.55 3613.18 2755.72 2494.64 5117.39 2283.31 2235.09 2411.41 2180.15 7471.85 2977.75 2562.01 2148.73 2076.26 2468.25 2118.73 2189.25 2316.97 2811.27 2023.62 2366.88 1977.22 2025.24 2199.56 1948.82 1944.92 1881.43 1877.11 1866.37
